{"learner":{"attributes":{},"feature_names":[],"feature_types":[],"gradient_booster":{"model":{"gbtree_model_param":{"num_parallel_tree":"1","num_trees":"500"},"iteration_indptr":[0,1,2,3,4,5,6,7,8,9,10,11,12,13,14,15,16,17,18,19,20,21,22,23,24,25,26,27,28,29,30,31,32,33,34,35,36,37,38,39,40,41,42,43,44,45,46,47,48,49,50,51,52,53,54,55,56,57,58,59,60,61,62,63,64,65,66,67,68,69,70,71,72,73,74,75,76,77,78,79,80,81,82,83,84,85,86,87,88,89,90,91,92,93,94,95,96,97,98,99,100,101,102,103,104,105,106,107,108,109,110,111,112,113,114,115,116,117,118,119,120,121,122,123,124,125,126,127,128,129,130,131,132,133,134,135,136,137,138,139,140,141,142,143,144,145,146,147,148,149,150,151,152,153,154,155,156,157,158,159,160,161,162,163,164,165,166,167,168,169,170,171,172,173,174,175,176,177,178,179,180,181,182,183,184,185,186,187,188,189,190,191,192,193,194,195,196,197,198,199,200,201,202,203,204,205,206,207,208,209,210,211,212,213,214,215,216,217,218,219,220,221,222,223,224,225,226,227,228,229,230,231,232,233,234,235,236,237,238,239,240,241,242,243,244,245,246,247,248,249,250,251,252,253,254,255,256,257,258,259,260,261,262,263,264,265,266,267,268,269,270,271,272,273,274,275,276,277,278,279,280,281,282,283,284,285,286,287,288,289,290,291,292,293,294,295,296,297,298,299,300,301,302,303,304,305,306,307,308,309,310,311,312,313,314,315,316,317,318,319,320,321,322,323,324,325,326,327,328,329,330,331,332,333,334,335,336,337,338,339,340,341,342,343,344,345,346,347,348,349,350,351,352,353,354,355,356,357,358,359,360,361,362,363,364,365,366,367,368,369,370,371,372,373,374,375,376,377,378,379,380,381,382,383,384,385,386,387,388,389,390,391,392,393,394,395,396,397,398,399,400,401,402,403,404,405,406,407,408,409,410,411,412,413,414,415,416,417,418,419,420,421,422,423,424,425,426,427,428,429,430,431,432,433,434,435,436,437,438,439,440,441,442,443,444,445,446,447,448,449,450,451,452,453,454,455,456,457,458,459,460,461,462,463,464,465,466,467,468,469,470,471,472,473,474,475,476,477,478,479,480,481,482,483,484,485,486,487,488,489,490,491,492,493,494,495,496,497,498,499,500],"tree_info":[0,0,0,0,0,0,0,0,0,0,0,0,0,0,0,0,0,0,0,0,0,0,0,0,0,0,0,0,0,0,0,0,0,0,0,0,0,0,0,0,0,0,0,0,0,0,0,0,0,0,0,0,0,0,0,0,0,0,0,0,0,0,0,0,0,0,0,0,0,0,0,0,0,0,0,0,0,0,0,0,0,0,0,0,0,0,0,0,0,0,0,0,0,0,0,0,0,0,0,0,0,0,0,0,0,0,0,0,0,0,0,0,0,0,0,0,0,0,0,0,0,0,0,0,0,0,0,0,0,0,0,0,0,0,0,0,0,0,0,0,0,0,0,0,0,0,0,0,0,0,0,0,0,0,0,0,0,0,0,0,0,0,0,0,0,0,0,0,0,0,0,0,0,0,0,0,0,0,0,0,0,0,0,0,0,0,0,0,0,0,0,0,0,0,0,0,0,0,0,0,0,0,0,0,0,0,0,0,0,0,0,0,0,0,0,0,0,0,0,0,0,0,0,0,0,0,0,0,0,0,0,0,0,0,0,0,0,0,0,0,0,0,0,0,0,0,0,0,0,0,0,0,0,0,0,0,0,0,0,0,0,0,0,0,0,0,0,0,0,0,0,0,0,0,0,0,0,0,0,0,0,0,0,0,0,0,0,0,0,0,0,0,0,0,0,0,0,0,0,0,0,0,0,0,0,0,0,0,0,0,0,0,0,0,0,0,0,0,0,0,0,0,0,0,0,0,0,0,0,0,0,0,0,0,0,0,0,0,0,0,0,0,0,0,0,0,0,0,0,0,0,0,0,0,0,0,0,0,0,0,0,0,0,0,0,0,0,0,0,0,0,0,0,0,0,0,0,0,0,0,0,0,0,0,0,0,0,0,0,0,0,0,0,0,0,0,0,0,0,0,0,0,0,0,0,0,0,0,0,0,0,0,0,0,0,0,0,0,0,0,0,0,0,0,0,0,0,0,0,0,0,0,0,0,0,0,0,0,0,0,0,0,0,0,0,0,0,0,0,0,0,0,0,0,0,0,0,0,0,0,0,0,0,0,0,0,0,0,0,0,0,0,0,0,0,0,0,0,0,0,0,0,0,0,0,0,0,0,0,0,0,0,0,0,0,0,0,0,0,0],"trees":[{"base_weights":[5.7342127E-3,1.8171808E0,-1.8755006E0,-2.4395193E-1,1.9809506E0,-1.9374895E0,4.7953714E-2,2.231772E-1,2.8662884E-1,-1.2539133E0,-2.86876E-1,3.80049E-3,-2.8565195E-1],"categories":[],"categories_nodes":[],"categories_segments":[],"categories_sizes":[],"default_left":[0,0,0,0,0,0,0,0,0,0,0,0,0],"id":0,"left_children":[1,3,5,-1,7,9,-1,-1,-1,11,-1,-1,-1],"loss_changes":[4.144693E3,3.5737427E2,8.184961E1,0E0,3.7451172E0,2.4187744E1,0E0,0E0,0E0,4.5947304E1,0E0,0E0,0E0],"parents":[2147483647,0,0,1,1,2,2,4,4,5,5,9,9],"right_children":[2,4,6,-1,8,10,-1,-1,-1,12,-1,-1,-1],"split_conditions":[2.14259E0,1.0971494E1,1.9001368E1,-2.4395193E-1,8E0,5.584714E0,4.7953714E-2,2.231772E-1,2.8662884E-1,7E0,-2.86876E-1,3.80049E-3,-2.8565195E-1],"split_indices":[7,20,20,0,10,7,0,0,0,15,0,0,0],"split_type":[0,0,0,0,0,0,0,0,0,0,0,0,0],"sum_hessian":[1.216E3,6.195E2,5.965E2,2.75E1,5.92E2,5.8025E2,1.625E1,2.3E1,5.69E2,4.85E1,5.3175E2,1.775E1,3.075E1],"tree_param":{"num_deleted":"0","num_feature":"28","num_nodes":"13","size_leaf_vector":"1"}},{"base_weights":[2.5653068E-2,1.6033039E0,-1.6520566E0,-2.0034124E-1,1.7416465E0,-6.9343364E-1,-2.5110474E-1,2.205524E-1,2.5104734E-1,2.634187E-1,-2.5859734E-1],"categories":[],"categories_nodes":[],"categories_segments":[],"categories_sizes":[],"default_left":[0,0,0,0,0,0,0,0,0,0,0],"id":1,"left_children":[1,3,5,-1,7,9,-1,-1,-1,-1,-1],"loss_changes":[3.1357012E3,2.536875E2,5.377307E1,0E0,5.4003906E-1,1.505777E2,0E0,0E0,0E0,0E0,0E0],"parents":[2147483647,0,0,1,1,2,2,4,4,5,5],"right_children":[2,4,6,-1,8,10,-1,-1,-1,-1,-1],"split_conditions":[2.14259E0,2.1E1,5.584714E0,-2.0034124E-1,8.3E1,5E-1,-2.5110474E-1,2.205524E-1,2.5104734E-1,2.634187E-1,-2.5859734E-1],"split_indices":[7,16,7,0,19,17,0,0,0,0,0],"split_type":[0,0,0,0,0,0,0,0,0,0,0],"sum_hessian":[1.1844434E3,6.104356E2,5.740078E2,2.6852726E1,5.835829E2,5.3406685E1,5.206011E2,2.330836E1,5.6027454E2,1.6245373E1,3.716131E1],"tree_param":{"num_deleted":"0","num_feature":"28","num_nodes":"11","size_leaf_vector":"1"}},{"base_weights":[-1.7098494E-2,1.432218E0,-1.5007288E0,-9.518661E-1,2.2727199E-1,-6.805284E-1,-2.2698279E-1,-2.6756313E-2,-2.3326053E-1,-2.3052914E-1,1.641487E-1],"categories":[],"categories_nodes":[],"categories_segments":[],"categories_sizes":[],"default_left":[0,0,0,0,0,0,0,0,0,0,0],"id":2,"left_children":[1,3,5,7,-1,9,-1,-1,-1,-1,-1],"loss_changes":[2.4283262E3,2.0698547E2,3.7016968E1,1.7590416E1,0E0,8.5724075E1,0E0,0E0,0E0,0E0,0E0],"parents":[2147483647,0,0,1,1,2,2,3,3,5,5],"right_children":[2,4,6,8,-1,10,-1,-1,-1,-1,-1],"split_conditions":[2.3887122E0,7.358929E1,5.584714E0,1.2680886E1,2.2727199E-1,6.1E1,-2.2698279E-1,-2.6756313E-2,-2.3326053E-1,-2.3052914E-1,1.641487E-1],"split_indices":[7,19,7,18,0,19,0,0,0,0,0],"split_type":[0,0,0,0,0,0,0,0,0,0,0],"sum_hessian":[1.1290688E3,5.711324E2,5.5793646E2,3.4143803E1,5.369886E2,5.0453E1,5.074835E2,1.608112E1,1.8062681E1,3.3484894E1,1.6968107E1],"tree_param":{"num_deleted":"0","num_feature":"28","num_nodes":"11","size_leaf_vector":"1"}},{"base_weights":[1.99727E-3,1.3292435E0,-1.3787286E0,-1.7587297E-1,1.4517224E0,-1.4336628E0,3.212768E-2,1.5856227E-1,2.0989102E-1,-1.4569095E0,-1.10931896E-1,-2.1058305E-1,-1.9049342E-1],"categories":[],"categories_nodes":[],"categories_segments":[],"categories_sizes":[],"default_left":[0,0,0,0,0,0,0,0,0,0,0,0,0],"id":3,"left_children":[1,3,5,-1,7,9,-1,-1,-1,11,-1,-1,-1],"loss_changes":[1.9465927E3,1.6972272E2,4.5907715E1,0E0,1.7302246E0,7.527588E0,0E0,0E0,0E0,3.585205E-1,0E0,0E0,0E0],"parents":[2147483647,0,0,1,1,2,2,4,4,5,5,9,9],"right_children":[2,4,6,-1,8,10,-1,-1,-1,12,-1,-1,-1],"split_conditions":[2.14259E0,1.6E1,1.8028915E1,-1.7587297E-1,2.6E1,1E0,3.212768E-2,1.5856227E-1,2.0989102E-1,1.6152264E1,-1.10931896E-1,-2.1058305E-1,-1.9049342E-1],"split_indices":[7,16,20,0,16,8,0,0,0,20,0,0,0],"split_type":[0,0,0,0,0,0,0,0,0,0,0,0,0],"sum_hessian":[1.0619716E3,5.414844E2,5.204871E2,2.470725E1,5.167771E2,5.0326654E2,1.7220604E1,1.6619118E1,5.00158E2,4.8596942E2,1.7297121E1,4.4702948E2,3.893994E1],"tree_param":{"num_deleted":"0","num_feature":"28","num_nodes":"13","size_leaf_vector":"1"}},{"base_weights":[-3.8326902E-3,-1.3057439E0,1.1571456E0,-1.9855012E-1,-5.082846E-1,1.3789983E0,-2.0483929E-1,4.9600214E-2,-1.9616601E-1,1.7860807E-1,1.9852948E-1],"categories":[],"categories_nodes":[],"categories_segments":[],"categories_sizes":[],"default_left":[0,0,0,0,0,0,0,0,0,0,0],"id":4,"left_children":[1,3,5,-1,7,9,-1,-1,-1,-1,-1],"loss_changes":[1.4741835E3,2.8500977E1,2.95893E2,0E0,3.0344181E1,1.2817383E-2,0E0,0E0,0E0,0E0,0E0],"parents":[2147483647,0,0,1,1,2,2,4,4,5,5],"right_children":[2,4,6,-1,8,10,-1,-1,-1,-1,-1],"split_conditions":[1.5017287E1,-8.9251E7,1.5419201E9,-1.9855012E-1,1.5419201E9,7.615626E1,-2.0483929E-1,4.9600214E-2,-1.9616601E-1,1.7860807E-1,1.9852948E-1],"split_indices":[20,6,6,0,6,9,0,0,0,0,0],"split_type":[0,0,0,0,0,0,0,0,0,0,0],"sum_hessian":[9.750619E2,4.5963644E2,5.154254E2,4.1851474E2,4.1121727E1,4.7474786E2,4.067757E1,2.0642973E1,2.0478754E1,1.7457022E1,4.5729083E2],"tree_param":{"num_deleted":"0","num_feature":"28","num_nodes":"11","size_leaf_vector":"1"}},{"base_weights":[-1.3194251E-3,-1.2260872E0,1.1022453E0,-4.6263155E-1,-1.8857923E-1,6.3777584E-1,1.3055437E0,9.104797E-3,-1.7416547E-1,-3.4007925E-1,1.2663769E0,1.5663716E-1,1.8886285E-1,1.0996655E-1,-1.6455863E-1,1.6149436E-1,1.8622054E-1],"categories":[],"categories_nodes":[],"categories_segments":[],"categories_sizes":[],"default_left":[0,0,0,0,0,0,0,0,0,0,0,0,0,0,0,0,0],"id":5,"left_children":[1,3,5,7,-1,9,11,-1,-1,13,15,-1,-1,-1,-1,-1,-1],"loss_changes":[1.2096057E3,2.846399E1,4.4294006E1,1.7505838E1,0E0,8.834976E1,5.0982666E-1,0E0,0E0,5.0364803E1,1.3934326E-1,0E0,0E0,0E0,0E0,0E0,0E0],"parents":[2147483647,0,0,1,1,2,2,3,3,5,5,6,6,9,9,10,10],"right_children":[2,4,6,8,-1,10,12,-1,-1,14,16,-1,-1,-1,-1,-1,-1],"split_conditions":[1.5017287E1,5E-1,1E0,2.510609E1,-1.8857923E-1,6.109633E0,8.4E1,9.104797E-3,-1.7416547E-1,6E0,9.297079E0,1.5663716E-1,1.8886285E-1,1.0996655E-1,-1.6455863E-1,1.6149436E-1,1.8622054E-1],"split_indices":[20,17,8,14,0,12,19,0,0,12,12,0,0,0,0,0,0],"split_type":[0,0,0,0,0,0,0,0,0,0,0,0,0,0,0,0,0],"sum_hessian":[8.94681E2,4.240586E2,4.7062244E2,4.4063778E1,3.799948E2,1.4347762E2,3.2714484E2,2.5963232E1,1.8100546E1,5.614858E1,8.732905E1,1.646463E1,3.106802E2,2.3666336E1,3.248224E1,1.6989538E1,7.033951E1],"tree_param":{"num_deleted":"0","num_feature":"28","num_nodes":"17","size_leaf_vector":"1"}},{"base_weights":[5.1400444E-4,-1.1626377E0,1.0408251E0,-3.4321207E-1,-1.808343E-1,1.8078208E-1,-1.8854421E-1,6.1499286E-2,-1.8048812E-1],"categories":[],"categories_nodes":[],"categories_segments":[],"categories_sizes":[],"default_left":[0,0,0,0,0,0,0,0,0],"id":6,"left_children":[1,3,5,7,-1,-1,-1,-1,-1],"loss_changes":[9.69097E2,3.0187042E1,2.1844122E2,2.868437E1,0E0,0E0,0E0,0E0,0E0],"parents":[2147483647,0,0,1,1,2,2,3,3],"right_children":[2,4,6,8,-1,-1,-1,-1,-1],"split_conditions":[1.5017287E1,1E0,1.5419201E9,1.5419201E9,-1.808343E-1,1.8078208E-1,-1.8854421E-1,6.1499286E-2,-1.8048812E-1],"split_indices":[20,15,6,6,0,0,0,0,0],"split_type":[0,0,0,0,0,0,0,0,0],"sum_hessian":[8.0062976E2,3.7797876E2,4.2265103E2,4.0371788E1,3.3760696E2,3.867255E2,3.5925537E1,2.191704E1,1.8454746E1],"tree_param":{"num_deleted":"0","num_feature":"28","num_nodes":"9","size_leaf_vector":"1"}},{"base_weights":[-7.234987E-4,1.0852411E0,-1.123617E0,-1.451168E-1,1.2040228E0,-1.1879094E0,4.6939636E-3,1.3552843E-1,1.7448983E-1,-1.22094385E-1,-1.7440355E-1],"categories":[],"categories_nodes":[],"categories_segments":[],"categories_sizes":[],"default_left":[0,0,0,0,0,0,0,0,0,0,0],"id":7,"left_children":[1,3,5,-1,7,9,-1,-1,-1,-1,-1],"loss_changes":[9.0130066E2,9.373288E1,2.705133E1,0E0,9.1748047E-1,3.0220032E0,0E0,0E0,0E0,0E0,0E0],"parents":[2147483647,0,0,1,1,2,2,4,4,5,5],"right_children":[2,4,6,-1,8,10,-1,-1,-1,-1,-1],"split_conditions":[2.14259E0,1.2E1,8.8553626E8,-1.451168E-1,1E1,5.1081486E0,4.6939636E-3,1.3552843E-1,1.7448983E-1,-1.22094385E-1,-1.7440355E-1],"split_indices":[7,20,5,0,10,7,0,0,0,0,0],"split_type":[0,0,0,0,0,0,0,0,0,0,0],"sum_hessian":[7.388669E2,3.756E2,3.6326685E2,2.0074795E1,3.5552524E2,3.441514E2,1.9115438E1,1.6437641E1,3.390876E2,2.6479975E1,3.1767145E2],"tree_param":{"num_deleted":"0","num_feature":"28","num_nodes":"11","size_leaf_vector":"1"}},{"base_weights":[-1.0434093E-3,1.0380092E0,-1.0663245E0,-1.4767931E-1,1.167189E0,-1.3792606E-1,-1.6873188E-1,1.257954E-1,1.6984743E-1,1.4319177E-1,-1.7250574E-1],"categories":[],"categories_nodes":[],"categories_segments":[],"categories_sizes":[],"default_left":[0,0,0,0,0,0,0,0,0,0,0],"id":8,"left_children":[1,3,5,-1,7,9,-1,-1,-1,-1,-1],"loss_changes":[7.182009E2,8.787131E1,3.257721E1,0E0,1.3062744E0,4.1300915E1,0E0,0E0,0E0,0E0,0E0],"parents":[2147483647,0,0,1,1,2,2,4,4,5,5],"right_children":[2,4,6,-1,8,10,-1,-1,-1,-1,-1],"split_conditions":[2.14259E0,1.3E1,5.1081486E0,-1.4767931E-1,1.4E1,1.2848372E1,-1.6873188E-1,1.257954E-1,1.6984743E-1,1.4319177E-1,-1.7250574E-1],"split_indices":[7,20,7,0,10,18,0,0,0,0,0],"split_type":[0,0,0,0,0,0,0,0,0,0,0],"sum_hessian":[6.48596E2,3.2832916E2,3.2026688E2,1.9245771E1,3.0908337E2,3.3901382E1,2.863655E2,1.7182667E1,2.919007E2,1.639137E1,1.7510014E1],"tree_param":{"num_deleted":"0","num_feature":"28","num_nodes":"11","size_leaf_vector":"1"}},{"base_weights":[6.683168E-3,9.980281E-1,-1.051479E0,-1.1506707E-1,1.1377901E0,-3.4022827E-2,-1.6540746E-1,1.332939E-1,1.6588722E-1],"categories":[],"categories_nodes":[],"categories_segments":[],"categories_sizes":[],"default_left":[0,0,0,0,0,0,0,0,0],"id":9,"left_children":[1,3,5,-1,7,-1,-1,-1,-1],"loss_changes":[6.119859E2,7.5904236E1,2.3224976E1,0E0,8.835449E-1,0E0,0E0,0E0,0E0],"parents":[2147483647,0,0,1,1,2,2,4,4],"right_children":[2,4,6,-1,8,-1,-1,-1,-1],"split_conditions":[2.3887122E0,2.1E1,5.584714E0,-1.1506707E-1,2.7E1,-3.4022827E-2,-1.6540746E-1,1.332939E-1,1.6588722E-1],"split_indices":[7,16,7,0,10,0,0,0,0],"split_type":[0,0,0,0,0,0,0,0,0],"sum_hessian":[5.831454E2,3.0109506E2,2.8205032E2,2.163708E1,2.7945798E2,3.1301847E1,2.5074846E2,2.3297121E1,2.5616086E2],"tree_param":{"num_deleted":"0","num_feature":"28","num_nodes":"9","size_leaf_vector":"1"}},{"base_weights":[-1.6659335E-3,-1.028084E0,9.250099E-1,-1.629707E-1,-3.756088E-2,4.7928742E-1,1.1269262E0,-1.6504256E-1,1.6265754E-1,1.4573255E-1,1.6312246E-1],"categories":[],"categories_nodes":[],"categories_segments":[],"categories_sizes":[],"default_left":[0,0,0,0,0,0,0,0,0,0,0],"id":10,"left_children":[1,3,5,-1,-1,7,9,-1,-1,-1,-1],"loss_changes":[4.913403E2,2.0171356E1,2.4320206E1,0E0,0E0,9.06991E1,4.6081543E-3,0E0,0E0,0E0,0E0],"parents":[2147483647,0,0,1,1,2,2,5,5,6,6],"right_children":[2,4,6,-1,-1,8,10,-1,-1,-1,-1],"split_conditions":[1.5017287E1,4.1925012E7,1E0,-1.629707E-1,-3.756088E-2,8.8553626E8,2.2667744E2,-1.6504256E-1,1.6265754E-1,1.4573255E-1,1.6312246E-1],"split_indices":[20,3,8,0,0,5,9,0,0,0,0],"split_type":[0,0,0,0,0,0,0,0,0,0,0],"sum_hessian":[5.163152E2,2.4498076E2,2.7133444E2,2.1468579E2,3.0294975E1,8.476878E1,1.8656564E2,2.4248568E1,6.0520218E1,1.6694849E1,1.698708E2],"tree_param":{"num_deleted":"0","num_feature":"28","num_nodes":"11","size_leaf_vector":"1"}},{"base_weights":[-1.092583E-2,9.362221E-1,-1.0015572E0,6.7978305E-1,1.0358875E0,-2.867675E-2,-1.5853871E-1,8.0705E-1,3.9898768E-2,1.0278561E-1,1.0688765E0,1.0265561E-1,1.2901166E-1,1.6512564E-1,1.4527288E-1],"categories":[],"categories_nodes":[],"categories_segments":[],"categories_sizes":[],"default_left":[0,0,0,0,0,0,0,0,0,0,0,0,0,0,0],"id":11,"left_children":[1,3,5,7,9,-1,-1,11,-1,-1,13,-1,-1,-1,-1],"loss_changes":[4.3295197E2,5.8940887E0,1.8639725E1,3.340477E0,1.6427765E0,0E0,0E0,3.0059814E-1,0E0,0E0,5.039673E-1,0E0,0E0,0E0,0E0],"parents":[2147483647,0,0,1,1,2,2,3,3,4,4,7,7,10,10],"right_children":[2,4,6,8,10,-1,-1,12,-1,-1,14,-1,-1,-1,-1],"split_conditions":[2.684516E0,8.8553626E8,5.584714E0,1.712071E0,5.621785E-2,-2.867675E-2,-1.5853871E-1,7.180599E-1,3.9898768E-2,1.0278561E-1,7.0710677E-1,1.0265561E-1,1.2901166E-1,1.6512564E-1,1.4527288E-1],"split_indices":[7,5,7,7,24,0,0,24,0,0,24,0,0,0,0],"split_type":[0,0,0,0,0,0,0,0,0,0,0,0,0,0,0],"sum_hessian":[4.611793E2,2.3575394E2,2.2542534E2,6.633352E1,1.6942041E2,2.5831446E1,1.995939E2,5.0226807E1,1.6106714E1,1.6200487E1,1.5321992E2,2.5893288E1,2.4333519E1,6.120537E1,9.201456E1],"tree_param":{"num_deleted":"0","num_feature":"28","num_nodes":"15","size_leaf_vector":"1"}},{"base_weights":[-3.667083E-3,9.227809E-1,-9.620266E-1,-1.0565979E-1,1.5785982E-1,-2.3120727E-2,-1.5671596E-1],"categories":[],"categories_nodes":[],"categories_segments":[],"categories_sizes":[],"default_left":[0,0,0,0,0,0,0],"id":12,"left_children":[1,3,5,-1,-1,-1,-1],"loss_changes":[3.7037582E2,6.2566315E1,2.1335907E1,0E0,0E0,0E0,0E0],"parents":[2147483647,0,0,1,1,2,2],"right_children":[2,4,6,-1,-1,-1,-1],"split_conditions":[2.3887122E0,6.9E1,5.584714E0,-1.0565979E-1,1.5785982E-1,-2.3120727E-2,-1.5671596E-1],"split_indices":[7,19,7,0,0,0,0],"split_type":[0,0,0,0,0,0,0],"sum_hessian":[4.1689655E2,2.1196584E2,2.049307E2,2.0428741E1,1.915371E2,2.8735611E1,1.7619508E2],"tree_param":{"num_deleted":"0","num_feature":"28","num_nodes":"7","size_leaf_vector":"1"}},{"base_weights":[-5.0734985E-4,-9.681561E-1,8.936788E-1,-1.5646313E-1,-4.1037656E-2,5.0557923E-1,1.0729533E0,1.572597E-1,-1.6290241E-1,1.3122436E-1,1.5690388E-1],"categories":[],"categories_nodes":[],"categories_segments":[],"categories_sizes":[],"default_left":[0,0,0,0,0,0,0,0,0,0,0],"id":13,"left_children":[1,3,5,-1,-1,7,9,-1,-1,-1,-1],"loss_changes":[3.2391974E2,1.4932358E1,1.3425735E1,0E0,0E0,6.0000046E1,2.545929E-1,0E0,0E0,0E0,0E0],"parents":[2147483647,0,0,1,1,2,2,5,5,6,6],"right_children":[2,4,6,-1,-1,8,10,-1,-1,-1,-1],"split_conditions":[1.5017287E1,4.1925012E7,8.8553626E8,-1.5646313E-1,-4.1037656E-2,4.1034925E8,3.9E1,1.572597E-1,-1.6290241E-1,1.3122436E-1,1.5690388E-1],"split_indices":[20,3,5,0,0,5,10,0,0,0,0],"split_type":[0,0,0,0,0,0,0,0,0,0,0],"sum_hessian":[3.7410654E2,1.7968188E2,1.9442467E2,1.5225504E2,2.742684E1,6.16323E1,1.3279237E2,4.5365925E1,1.6266376E1,1.6121841E1,1.16670525E2],"tree_param":{"num_deleted":"0","num_feature":"28","num_nodes":"11","size_leaf_vector":"1"}},{"base_weights":[2.7621688E-2,-1.5454417E-1,7.742115E-1,1.0087051E0,-1.4879131E-1,2.6468491E-2,1.0998149E0,1.8426813E-1,1.543944E-1],"categories":[],"categories_nodes":[],"categories_segments":[],"categories_sizes":[],"default_left":[0,0,0,0,0,0,0,0,0],"id":14,"left_children":[1,-1,3,5,-1,-1,7,-1,-1],"loss_changes":[2.6962076E2,0E0,8.298917E1,1.2916626E1,0E0,0E0,4.4309998E-1,0E0,0E0],"parents":[2147483647,0,0,2,2,3,3,6,6],"right_children":[2,-1,4,6,-1,-1,8,-1,-1],"split_conditions":[4.1925012E7,-1.5454417E-1,7.112179E0,1.14849014E2,-1.4879131E-1,2.6468491E-2,8.6E1,1.8426813E-1,1.543944E-1],"split_indices":[3,0,7,9,0,0,19,0,0],"split_type":[0,0,0,0,0,0,0,0,0],"sum_hessian":[3.2664435E2,1.3168777E2,1.9495659E2,1.7267238E2,2.228421E1,1.7254349E1,1.5541803E2,1.6807047E1,1.3861098E2],"tree_param":{"num_deleted":"0","num_feature":"28","num_nodes":"9","size_leaf_vector":"1"}},{"base_weights":[-4.5310394E-3,-1.5296233E-1,7.1022767E-1,9.293022E-1,-1.5297069E-1,-4.3072168E-2,1.5445527E-1],"categories":[],"categories_nodes":[],"categories_segments":[],"categories_sizes":[],"default_left":[0,0,0,0,0,0,0],"id":15,"left_children":[1,-1,3,5,-1,-1,-1],"loss_changes":[2.1951317E2,0E0,6.739661E1,2.7932236E1,0E0,0E0,0E0],"parents":[2147483647,0,0,2,2,3,3],"right_children":[2,-1,4,6,-1,-1,-1],"split_conditions":[4.1925012E7,-1.5296233E-1,1.5419201E9,8.0057625E1,-1.5297069E-1,-4.3072168E-2,1.5445527E-1],"split_indices":[3,0,6,19,0,0,0],"split_type":[0,0,0,0,0,0,0],"sum_hessian":[2.890322E2,1.1628932E2,1.7274286E2,1.5384523E2,1.8897633E1,1.6418442E1,1.3742679E2],"tree_param":{"num_deleted":"0","num_feature":"28","num_nodes":"7","size_leaf_vector":"1"}},{"base_weights":[-6.4680767E-3,-8.9373136E-1,8.411225E-1,-1.0311605E0,2.6525056E-4,4.2009604E-1,1.0356941E0,-1.5158693E-1,-1.2723288E-1,2.1735707E-3,1.1089518E-1,1.2694427E-1,1.5338796E-1],"categories":[],"categories_nodes":[],"categories_segments":[],"categories_sizes":[],"default_left":[0,0,0,0,0,0,0,0,0,0,0,0,0],"id":16,"left_children":[1,3,5,7,-1,9,11,-1,-1,-1,-1,-1,-1],"loss_changes":[1.8926038E2,1.5162285E1,1.0448952E1,2.2057343E-1,0E0,5.8258243E0,2.714386E-1,0E0,0E0,0E0,0E0,0E0,0E0],"parents":[2147483647,0,0,1,1,2,2,3,3,5,5,6,6],"right_children":[2,4,6,8,-1,10,12,-1,-1,-1,-1,-1,-1],"split_conditions":[1.5017287E1,1E0,1E0,6.5E1,2.6525056E-4,1.8028915E1,8.8474495E1,-1.5158693E-1,-1.2723288E-1,2.1735707E-3,1.1089518E-1,1.2694427E-1,1.5338796E-1],"split_indices":[20,8,8,19,0,20,19,0,0,0,0,0,0],"split_type":[0,0,0,0,0,0,0,0,0,0,0,0,0],"sum_hessian":[2.5140903E2,1.2284179E2,1.2856723E2,1.0650822E2,1.633357E1,4.080556E1,8.776168E1,8.975105E1,1.675717E1,1.9095783E1,2.1709776E1,1.667474E1,7.108694E1],"tree_param":{"num_deleted":"0","num_feature":"28","num_nodes":"13","size_leaf_vector":"1"}},{"base_weights":[1.3747025E-2,7.840041E-1,-9.452583E-1,-7.702514E-2,1.0032462E0,-6.875628E-2,-1.4848113E-1,1.0339619E-1,1.5102151E-1],"categories":[],"categories_nodes":[],"categories_segments":[],"categories_sizes":[],"default_left":[0,0,0,0,0,0,0,0,0],"id":17,"left_children":[1,3,5,-1,7,-1,-1,-1,-1],"loss_changes":[1.6720105E2,3.643696E1,4.108032E0,0E0,1.3593979E0,0E0,0E0,0E0,0E0],"parents":[2147483647,0,0,1,1,2,2,4,4],"right_children":[2,4,6,-1,8,-1,-1,-1,-1],"split_conditions":[3.471604E0,2.1E1,9.092649E0,-7.702514E-2,3.7474002E2,-6.875628E-2,-1.4848113E-1,1.0339619E-1,1.5102151E-1],"split_indices":[7,16,7,0,9,0,0,0,0],"split_type":[0,0,0,0,0,0,0,0,0],"sum_hessian":[2.2610309E2,1.2541919E2,1.006839E2,1.7810875E1,1.07608315E2,1.6417402E1,8.4266495E1,1.63706E1,9.123772E1],"tree_param":{"num_deleted":"0","num_feature":"28","num_nodes":"9","size_leaf_vector":"1"}},{"base_weights":[3.002472E-4,-1.4965568E-1,6.6843617E-1,8.8158256E-1,-1.0142204E-1,-2.5396192E-2,1.0690342E0,1.7429012E-1,1.479371E-1],"categories":[],"categories_nodes":[],"categories_segments":[],"categories_sizes":[],"default_left":[0,0,0,0,0,0,0,0,0],"id":18,"left_children":[1,-1,3,5,-1,-1,7,-1,-1],"loss_changes":[1.4281812E2,0E0,3.6702618E1,2.1523842E1,0E0,0E0,2.9060364E-1,0E0,0E0],"parents":[2147483647,0,0,2,2,3,3,6,6],"right_children":[2,-1,4,6,-1,-1,8,-1,-1],"split_conditions":[-8.9251E7,-1.4965568E-1,4.848813E0,1.14849014E2,-1.0142204E-1,-2.5396192E-2,2.8345964E1,1.7429012E-1,1.479371E-1],"split_indices":[6,0,7,9,0,0,14,0,0],"split_type":[0,0,0,0,0,0,0,0,0],"sum_hessian":[2.0463115E2,7.984033E1,1.2479082E2,1.0810203E2,1.6688786E1,1.6242447E1,9.185958E1,1.8018808E1,7.3840775E1],"tree_param":{"num_deleted":"0","num_feature":"28","num_nodes":"9","size_leaf_vector":"1"}},{"base_weights":[-9.1514755E-3,-8.337986E-1,8.048705E-1,-1.8350895E-2,-1.4868799E-1,9.807869E-1,-1.5879863E-4,1.1335709E-1,1.4795165E-1],"categories":[],"categories_nodes":[],"categories_segments":[],"categories_sizes":[],"default_left":[0,0,0,0,0,0,0,0,0],"id":19,"left_children":[1,3,5,-1,-1,7,-1,-1,-1],"loss_changes":[1.2096398E2,1.2752087E1,1.2881351E1,0E0,0E0,5.6438446E-1,0E0,0E0,0E0],"parents":[2147483647,0,0,1,1,2,2,5,5],"right_children":[2,4,6,-1,-1,8,-1,-1,-1],"split_conditions":[1.5017287E1,5E-1,2.3887122E0,-1.8350895E-2,-1.4868799E-1,6.9E1,-1.5879863E-4,1.1335709E-1,1.4795165E-1],"split_indices":[20,17,7,0,0,10,0,0,0],"split_type":[0,0,0,0,0,0,0,0,0],"sum_hessian":[1.7994449E2,8.940349E1,9.054099E1,2.0007343E1,6.939615E1,7.432406E1,1.6216934E1,1.6089676E1,5.8234386E1],"tree_param":{"num_deleted":"0","num_feature":"28","num_nodes":"9","size_leaf_vector":"1"}},{"base_weights":[-1.248947E-3,6.647594E-1,-1.00218E0,-9.069958E-2,1.4772794E-1,-1.3045941E-1,-1.4788848E-1],"categories":[],"categories_nodes":[],"categories_segments":[],"categories_sizes":[],"default_left":[0,0,0,0,0,0,0],"id":20,"left_children":[1,3,5,-1,-1,-1,-1],"loss_changes":[1.0763541E2,4.596089E1,1.2817383E-3,0E0,0E0,0E0,0E0],"parents":[2147483647,0,0,1,1,2,2],"right_children":[2,4,6,-1,-1,-1,-1],"split_conditions":[5.1081486E0,6.9E1,5.6E1,-9.069958E-2,1.4772794E-1,-1.3045941E-1,-1.4788848E-1],"split_indices":[7,19,10,0,0,0,0],"split_type":[0,0,0,0,0,0,0],"sum_hessian":[1.6119588E2,9.6801384E1,6.439449E1,2.1218218E1,7.558317E1,1.634335E1,4.8051144E1],"tree_param":{"num_deleted":"0","num_feature":"28","num_nodes":"7","size_leaf_vector":"1"}},{"base_weights":[2.0609535E-2,6.432356E-1,-1.4253433E-1,-7.964968E-2,1.4769264E-1],"categories":[],"categories_nodes":[],"categories_segments":[],"categories_sizes":[],"default_left":[0,0,0,0,0],"id":21,"left_children":[1,3,-1,-1,-1],"loss_changes":[9.133491E1,4.157207E1,0E0,0E0,0E0],"parents":[2147483647,0,0,1,1],"right_children":[2,4,-1,-1,-1],"split_conditions":[5.584714E0,7.358929E1,-1.4253433E-1,-7.964968E-2,1.4769264E-1],"split_indices":[7,19,0,0,0],"split_type":[0,0,0,0,0],"sum_hessian":[1.4442076E2,8.952486E1,5.4895905E1,2.1787241E1,6.773761E1],"tree_param":{"num_deleted":"0","num_feature":"28","num_nodes":"5","size_leaf_vector":"1"}},{"base_weights":[1.961303E-2,6.169419E-1,-1.4677045E-1,8.411621E-1,-3.3800725E-2,4.3301668E-2,1.4674708E-1],"categories":[],"categories_nodes":[],"categories_segments":[],"categories_sizes":[],"default_left":[0,0,0,0,0,0,0],"id":22,"left_children":[1,3,-1,5,-1,-1,-1],"loss_changes":[7.832609E1,1.5330503E1,0E0,6.135193E0,0E0,0E0,0E0],"parents":[2147483647,0,0,1,1,3,3],"right_children":[2,4,-1,6,-1,-1,-1],"split_conditions":[1E0,2.912825E0,-1.4677045E-1,2.8E1,-3.3800725E-2,4.3301668E-2,1.4674708E-1],"split_indices":[15,7,0,10,0,0,0],"split_type":[0,0,0,0,0,0,0],"sum_hessian":[1.2553464E2,7.985816E1,4.5676476E1,6.325454E1,1.6603622E1,1.6057165E1,4.7197376E1],"tree_param":{"num_deleted":"0","num_feature":"28","num_nodes":"7","size_leaf_vector":"1"}},{"base_weights":[-1.9127012E-3,-1.4663015E-1,5.897099E-1,1.2611519E-2,8.893362E-1,8.153546E-2,1.5245847E-1],"categories":[],"categories_nodes":[],"categories_segments":[],"categories_sizes":[],"default_left":[0,0,0,0,0,0,0],"id":23,"left_children":[1,-1,3,-1,5,-1,-1],"loss_changes":[6.923546E1,0E0,1.0877417E1,0E0,2.4059143E0,0E0,0E0],"parents":[2147483647,0,0,2,2,4,4],"right_children":[2,-1,4,-1,6,-1,-1],"split_conditions":[2.3691702E0,-1.4663015E-1,1E0,1.2611519E-2,1.7266521E1,8.153546E-2,1.5245847E-1],"split_indices":[23,0,8,0,20,0,0],"split_type":[0,0,0,0,0,0,0],"sum_hessian":[1.1445155E2,4.199559E1,7.245596E1,2.7182753E1,4.527321E1,1.6112873E1,2.9160336E1],"tree_param":{"num_deleted":"0","num_feature":"28","num_nodes":"7","size_leaf_vector":"1"}},{"base_weights":[1.6562143E-2,6.0164034E-1,-1.4297204E-1,-5.764357E-2,1.4800198E-1],"categories":[],"categories_nodes":[],"categories_segments":[],"categories_sizes":[],"default_left":[0,0,0,0,0],"id":24,"left_children":[1,3,-1,-1,-1],"loss_changes":[6.2521557E1,2.8924091E1,0E0,0E0,0E0],"parents":[2147483647,0,0,1,1],"right_children":[2,4,-1,-1,-1],"split_conditions":[5.584714E0,7.358929E1,-1.4297204E-1,-5.764357E-2,1.4800198E-1],"split_indices":[7,19,0,0,0],"split_type":[0,0,0,0,0],"sum_hessian":[1.0524643E2,6.676468E1,3.8481754E1,2.0009373E1,4.6755302E1],"tree_param":{"num_deleted":"0","num_feature":"28","num_nodes":"5","size_leaf_vector":"1"}},{"base_weights":[-4.637737E-2,-7.3453903E-1,6.659282E-1,-2.8019266E-2,-1.4531973E-1,3.5930637E-2,1.3225953E-1],"categories":[],"categories_nodes":[],"categories_segments":[],"categories_sizes":[],"default_left":[0,0,0,0,0,0,0],"id":25,"left_children":[1,3,5,-1,-1,-1,-1],"loss_changes":[4.5377045E1,7.011305E0,4.774496E0,0E0,0E0,0E0,0E0],"parents":[2147483647,0,0,1,1,2,2],"right_children":[2,4,6,-1,-1,-1,-1],"split_conditions":[2.6991564E1,3E0,1E0,-2.8019266E-2,-1.4531973E-1,3.5930637E-2,1.3225953E-1],"split_indices":[16,15,8,0,0,0,0],"split_type":[0,0,0,0,0,0,0],"sum_hessian":[9.231533E1,4.697031E1,4.5345016E1,1.6095263E1,3.0875046E1,1.7417797E1,2.7927221E1],"tree_param":{"num_deleted":"0","num_feature":"28","num_nodes":"7","size_leaf_vector":"1"}},{"base_weights":[-1.3752177E-2,-1.4539249E-1,4.5836806E-1,-2.2403874E-2,6.922515E-1,4.0826708E-2,1.41157E-1],"categories":[],"categories_nodes":[],"categories_segments":[],"categories_sizes":[],"default_left":[0,0,0,0,0,0,0],"id":26,"left_children":[1,-1,3,-1,5,-1,-1],"loss_changes":[4.0618343E1,0E0,8.424505E0,0E0,4.967947E0,0E0,0E0],"parents":[2147483647,0,0,2,2,4,4],"right_children":[2,-1,4,-1,6,-1,-1],"split_conditions":[2.3691702E0,-1.4539249E-1,2.3848192E2,-2.2403874E-2,6.109633E0,4.0826708E-2,1.41157E-1],"split_indices":[23,0,9,0,12,0,0],"split_type":[0,0,0,0,0,0,0],"sum_hessian":[8.578536E1,2.7490793E1,5.8294567E1,1.6050756E1,4.2243813E1,1.775698E1,2.4486832E1],"tree_param":{"num_deleted":"0","num_feature":"28","num_nodes":"7","size_leaf_vector":"1"}},{"base_weights":[4.907298E-2,6.045593E-1,-1.3637808E-1,-3.41116E-2,1.4305095E-1],"categories":[],"categories_nodes":[],"categories_segments":[],"categories_sizes":[],"default_left":[0,0,0,0,0],"id":27,"left_children":[1,3,-1,-1,-1],"loss_changes":[4.4497143E1,1.7086151E1,0E0,0E0,0E0],"parents":[2147483647,0,0,1,1],"right_children":[2,4,-1,-1,-1],"split_conditions":[5.584714E0,7.8E1,-1.3637808E-1,-3.41116E-2,1.4305095E-1],"split_indices":[7,19,0,0,0],"split_type":[0,0,0,0,0],"sum_hessian":[7.989549E1,5.1405586E1,2.8489906E1,1.6333765E1,3.507182E1],"tree_param":{"num_deleted":"0","num_feature":"28","num_nodes":"5","size_leaf_vector":"1"}},{"base_weights":[5.0778493E-2,-1.4423263E-1,4.9620333E-1,9.164098E-3,7.4345946E-1,6.6900775E-2,1.4516449E-1],"categories":[],"categories_nodes":[],"categories_segments":[],"categories_sizes":[],"default_left":[0,0,0,0,0,0,0],"id":28,"left_children":[1,-1,3,-1,5,-1,-1],"loss_changes":[3.398348E1,0E0,5.4073477E0,0E0,2.302702E0,0E0,0E0],"parents":[2147483647,0,0,2,2,4,4],"right_children":[2,-1,4,-1,6,-1,-1],"split_conditions":[4.1925012E7,-1.4423263E-1,8.8553626E8,9.164098E-3,7.7E1,6.6900775E-2,1.4516449E-1],"split_indices":[3,0,5,0,10,0,0],"split_type":[0,0,0,0,0,0,0],"sum_hessian":[7.201272E1,2.1298275E1,5.0714447E1,1.8548485E1,3.2165962E1,1.60407E1,1.612526E1],"tree_param":{"num_deleted":"0","num_feature":"28","num_nodes":"7","size_leaf_vector":"1"}},{"base_weights":[1.8693836E-2,-5.088367E-1,1.0033251E-1,-1.4376561E-1,-7.954989E-3],"categories":[],"categories_nodes":[],"categories_segments":[],"categories_sizes":[],"default_left":[0,0,0,0,0],"id":29,"left_children":[1,3,-1,-1,-1],"loss_changes":[2.3685888E1,8.269036E0,0E0,0E0,0E0],"parents":[2147483647,0,0,1,1],"right_children":[2,4,-1,-1,-1],"split_conditions":[1E0,2E0,1.0033251E-1,-1.4376561E-1,-7.954989E-3],"split_indices":[8,20,0,0,0],"split_type":[0,0,0,0,0],"sum_hessian":[6.57039E1,3.70105E1,2.8693403E1,1.762599E1,1.9384512E1],"tree_param":{"num_deleted":"0","num_feature":"28","num_nodes":"5","size_leaf_vector":"1"}},{"base_weights":[-2.325721E-2,4.570851E-1,-1.4469452E-1,-1.0142657E-2,1.2360706E-1],"categories":[],"categories_nodes":[],"categories_segments":[],"categories_sizes":[],"default_left":[0,0,0,0,0],"id":30,"left_children":[1,3,-1,-1,-1],"loss_changes":[2.9457722E1,8.953032E0,0E0,0E0,0E0],"parents":[2147483647,0,0,1,1],"right_children":[2,4,-1,-1,-1],"split_conditions":[7.112179E0,1.6152264E1,-1.4469452E-1,-1.0142657E-2,1.2360706E-1],"split_indices":[7,20,0,0,0],"split_type":[0,0,0,0,0],"sum_hessian":[6.1964672E1,4.1683372E1,2.0281301E1,1.8100986E1,2.3582386E1],"tree_param":{"num_deleted":"0","num_feature":"28","num_nodes":"5","size_leaf_vector":"1"}},{"base_weights":[-0E0,4.4973502E-1,-1.3601495E-1,-6.6214604E-3,1.19914606E-1],"categories":[],"categories_nodes":[],"categories_segments":[],"categories_sizes":[],"default_left":[0,0,0,0,0],"id":31,"left_children":[1,3,-1,-1,-1],"loss_changes":[2.3081625E1,7.050424E0,0E0,0E0,0E0],"parents":[2147483647,0,0,1,1],"right_children":[2,4,-1,-1,-1],"split_conditions":[7.112179E0,2.7155685E1,-1.3601495E-1,-6.6214604E-3,1.19914606E-1],"split_indices":[7,16,0,0,0],"split_type":[0,0,0,0,0],"sum_hessian":[5.3866127E1,3.6567913E1,1.7298214E1,1.6025621E1,2.054229E1],"tree_param":{"num_deleted":"0","num_feature":"28","num_nodes":"5","size_leaf_vector":"1"}},{"base_weights":[5.1051423E-2,-9.0444334E-2,4.8049745E-1,3.834746E-2,9.9664114E-2],"categories":[],"categories_nodes":[],"categories_segments":[],"categories_sizes":[],"default_left":[0,0,0,0,0],"id":32,"left_children":[1,-1,3,-1,-1],"loss_changes":[1.5604748E1,0E0,1.4456615E0,0E0,0E0],"parents":[2147483647,0,0,2,2],"right_children":[2,-1,4,-1,-1],"split_conditions":[1.0971494E1,-9.0444334E-2,9.137991E1,3.834746E-2,9.9664114E-2],"split_indices":[20,0,19,0,0],"split_type":[0,0,0,0,0],"sum_hessian":[5.308028E1,2.0473177E1,3.2607105E1,1.654323E1,1.6063873E1],"tree_param":{"num_deleted":"0","num_feature":"28","num_nodes":"5","size_leaf_vector":"1"}},{"base_weights":[-3.691113E-2,-7.619407E-2,8.3935685E-2],"categories":[],"categories_nodes":[],"categories_segments":[],"categories_sizes":[],"default_left":[0,0,0],"id":33,"left_children":[1,-1,-1],"loss_changes":[1.5017449E1,0E0,0E0],"parents":[2147483647,0,0],"right_children":[2,-1,-1],"split_conditions":[1E0,-7.619407E-2,8.3935685E-2],"split_indices":[8,0,0],"split_type":[0,0,0],"sum_hessian":[4.861524E1,2.7124632E1,2.1490604E1],"tree_param":{"num_deleted":"0","num_feature":"28","num_nodes":"3","size_leaf_vector":"1"}},{"base_weights":[-2.807085E-2,-8.048454E-2,5.8058124E-2],"categories":[],"categories_nodes":[],"categories_segments":[],"categories_sizes":[],"default_left":[0,0,0],"id":34,"left_children":[1,-1,-1],"loss_changes":[1.09457E1,0E0,0E0],"parents":[2147483647,0,0],"right_children":[2,-1,-1],"split_conditions":[7.358929E1,-8.048454E-2,5.8058124E-2],"split_indices":[19,0,0],"split_type":[0,0,0],"sum_hessian":[4.7197853E1,2.1161541E1,2.603631E1],"tree_param":{"num_deleted":"0","num_feature":"28","num_nodes":"3","size_leaf_vector":"1"}},{"base_weights":[6.8717687E-3,-7.723752E-2,8.303095E-2],"categories":[],"categories_nodes":[],"categories_segments":[],"categories_sizes":[],"default_left":[0,0,0],"id":35,"left_children":[1,-1,-1],"loss_changes":[1.4532944E1,0E0,0E0],"parents":[2147483647,0,0],"right_children":[2,-1,-1],"split_conditions":[8.8553626E8,-7.723752E-2,8.303095E-2],"split_indices":[5,0,0],"split_type":[0,0,0],"sum_hessian":[4.635801E1,2.3711802E1,2.2646206E1],"tree_param":{"num_deleted":"0","num_feature":"28","num_nodes":"3","size_leaf_vector":"1"}},{"base_weights":[2.9622583E-2,-6.949982E-2,8.5292146E-2],"categories":[],"categories_nodes":[],"categories_segments":[],"categories_sizes":[],"default_left":[0,0,0],"id":36,"left_children":[1,-1,-1],"loss_changes":[1.2788804E1,0E0,0E0],"parents":[2147483647,0,0],"right_children":[2,-1,-1],"split_conditions":[1E0,-6.949982E-2,8.5292146E-2],"split_indices":[8,0,0],"split_type":[0,0,0],"sum_hessian":[4.3784664E1,2.2908558E1,2.0876104E1],"tree_param":{"num_deleted":"0","num_feature":"28","num_nodes":"3","size_leaf_vector":"1"}},{"base_weights":[4.7293264E-2,-8.021736E-2,9.438264E-2],"categories":[],"categories_nodes":[],"categories_segments":[],"categories_sizes":[],"default_left":[0,0,0],"id":37,"left_children":[1,-1,-1],"loss_changes":[1.58846035E1,0E0,0E0],"parents":[2147483647,0,0],"right_children":[2,-1,-1],"split_conditions":[8.8553626E8,-8.021736E-2,9.438264E-2],"split_indices":[5,0,0],"split_type":[0,0,0],"sum_hessian":[4.2645763E1,2.1379072E1,2.1266691E1],"tree_param":{"num_deleted":"0","num_feature":"28","num_nodes":"3","size_leaf_vector":"1"}},{"base_weights":[4.1557238E-2,-5.7184994E-2,7.904182E-2],"categories":[],"categories_nodes":[],"categories_segments":[],"categories_sizes":[],"default_left":[0,0,0],"id":38,"left_children":[1,-1,-1],"loss_changes":[9.239511E0,0E0,0E0],"parents":[2147483647,0,0],"right_children":[2,-1,-1],"split_conditions":[1E0,-5.7184994E-2,7.904182E-2],"split_indices":[8,0,0],"split_type":[0,0,0],"sum_hessian":[4.094642E1,2.1952744E1,1.8993675E1],"tree_param":{"num_deleted":"0","num_feature":"28","num_nodes":"3","size_leaf_vector":"1"}},{"base_weights":[-2.9354864E-3,-5.8228087E-2,6.344446E-2],"categories":[],"categories_nodes":[],"categories_segments":[],"categories_sizes":[],"default_left":[0,0,0],"id":39,"left_children":[1,-1,-1],"loss_changes":[7.096729E0,0E0,0E0],"parents":[2147483647,0,0],"right_children":[2,-1,-1],"split_conditions":[1E0,-5.8228087E-2,6.344446E-2],"split_indices":[8,0,0],"split_type":[0,0,0],"sum_hessian":[3.9322285E1,2.0677256E1,1.8645031E1],"tree_param":{"num_deleted":"0","num_feature":"28","num_nodes":"3","size_leaf_vector":"1"}},{"base_weights":[4.3769594E-2,-6.496211E-2,6.345926E-2],"categories":[],"categories_nodes":[],"categories_segments":[],"categories_sizes":[],"default_left":[0,0,0],"id":40,"left_children":[1,-1,-1],"loss_changes":[7.859844E0,0E0,0E0],"parents":[2147483647,0,0],"right_children":[2,-1,-1],"split_conditions":[6.9E1,-6.496211E-2,6.345926E-2],"split_indices":[19,0,0],"split_type":[0,0,0],"sum_hessian":[3.946542E1,1.7534662E1,2.1930758E1],"tree_param":{"num_deleted":"0","num_feature":"28","num_nodes":"3","size_leaf_vector":"1"}},{"base_weights":[1.0257315E-2,-5.653013E-2,5.375036E-2],"categories":[],"categories_nodes":[],"categories_segments":[],"categories_sizes":[],"default_left":[0,0,0],"id":41,"left_children":[1,-1,-1],"loss_changes":[5.8937297E0,0E0,0E0],"parents":[2147483647,0,0],"right_children":[2,-1,-1],"split_conditions":[8.8553626E8,-5.653013E-2,5.375036E-2],"split_indices":[6,0,0],"split_type":[0,0,0],"sum_hessian":[3.976117E1,1.880954E1,2.0951628E1],"tree_param":{"num_deleted":"0","num_feature":"28","num_nodes":"3","size_leaf_vector":"1"}},{"base_weights":[-8.813405E-3,-7.473388E-2,5.635201E-2],"categories":[],"categories_nodes":[],"categories_segments":[],"categories_sizes":[],"default_left":[0,0,0],"id":42,"left_children":[1,-1,-1],"loss_changes":[7.74099E0,0E0,0E0],"parents":[2147483647,0,0],"right_children":[2,-1,-1],"split_conditions":[6.9E1,-7.473388E-2,5.635201E-2],"split_indices":[19,0,0],"split_type":[0,0,0],"sum_hessian":[3.737533E1,1.6440119E1,2.0935211E1],"tree_param":{"num_deleted":"0","num_feature":"28","num_nodes":"3","size_leaf_vector":"1"}},{"base_weights":[-4.2122267E-2,5.014751E-2,-7.9271905E-2],"categories":[],"categories_nodes":[],"categories_segments":[],"categories_sizes":[],"default_left":[0,0,0],"id":43,"left_children":[1,-1,-1],"loss_changes":[7.4564347E0,0E0,0E0],"parents":[2147483647,0,0],"right_children":[2,-1,-1],"split_conditions":[1.9118147E0,5.014751E-2,-7.9271905E-2],"split_indices":[7,0,0],"split_type":[0,0,0],"sum_hessian":[3.702704E1,2.0943953E1,1.6083088E1],"tree_param":{"num_deleted":"0","num_feature":"28","num_nodes":"3","size_leaf_vector":"1"}},{"base_weights":[-4.6014562E-2,-7.221634E-2,5.0375704E-2],"categories":[],"categories_nodes":[],"categories_segments":[],"categories_sizes":[],"default_left":[0,0,0],"id":44,"left_children":[1,-1,-1],"loss_changes":[6.5131774E0,0E0,0E0],"parents":[2147483647,0,0],"right_children":[2,-1,-1],"split_conditions":[8.2E1,-7.221634E-2,5.0375704E-2],"split_indices":[19,0,0],"split_type":[0,0,0],"sum_hessian":[3.559099E1,1.6557035E1,1.9033953E1],"tree_param":{"num_deleted":"0","num_feature":"28","num_nodes":"3","size_leaf_vector":"1"}},{"base_weights":[-6.835244E-3,-4.534704E-2,5.2506313E-2],"categories":[],"categories_nodes":[],"categories_segments":[],"categories_sizes":[],"default_left":[0,0,0],"id":45,"left_children":[1,-1,-1],"loss_changes":[4.204939E0,0E0,0E0],"parents":[2147483647,0,0],"right_children":[2,-1,-1],"split_conditions":[2.6991564E1,-4.534704E-2,5.2506313E-2],"split_indices":[16,0,0],"split_type":[0,0,0],"sum_hessian":[3.623447E1,1.985524E1,1.637923E1],"tree_param":{"num_deleted":"0","num_feature":"28","num_nodes":"3","size_leaf_vector":"1"}},{"base_weights":[1.0844848E-1,7.079612E-2,-4.267939E-2],"categories":[],"categories_nodes":[],"categories_segments":[],"categories_sizes":[],"default_left":[0,0,0],"id":46,"left_children":[1,-1,-1],"loss_changes":[5.211442E0,0E0,0E0],"parents":[2147483647,0,0],"right_children":[2,-1,-1],"split_conditions":[5.137467E-1,7.079612E-2,-4.267939E-2],"split_indices":[24,0,0],"split_type":[0,0,0],"sum_hessian":[3.306968E1,1.6991837E1,1.6077843E1],"tree_param":{"num_deleted":"0","num_feature":"28","num_nodes":"3","size_leaf_vector":"1"}},{"base_weights":[3.92466E-2,-4.3181762E-2,5.804296E-2],"categories":[],"categories_nodes":[],"categories_segments":[],"categories_sizes":[],"default_left":[0,0,0],"id":47,"left_children":[1,-1,-1],"loss_changes":[4.3092E0,0E0,0E0],"parents":[2147483647,0,0],"right_children":[2,-1,-1],"split_conditions":[1E0,-4.3181762E-2,5.804296E-2],"split_indices":[8,0,0],"split_type":[0,0,0],"sum_hessian":[3.4400185E1,1.7785713E1,1.6614473E1],"tree_param":{"num_deleted":"0","num_feature":"28","num_nodes":"3","size_leaf_vector":"1"}},{"base_weights":[-3.2050123E-3,3.822056E-2,-4.2851638E-2],"categories":[],"categories_nodes":[],"categories_segments":[],"categories_sizes":[],"default_left":[0,0,0],"id":48,"left_children":[1,-1,-1],"loss_changes":[2.6941159E0,0E0,0E0],"parents":[2147483647,0,0],"right_children":[2,-1,-1],"split_conditions":[6.065546E-1,3.822056E-2,-4.2851638E-2],"split_indices":[24,0,0],"split_type":[0,0,0],"sum_hessian":[3.3558315E1,1.7506954E1,1.6051361E1],"tree_param":{"num_deleted":"0","num_feature":"28","num_nodes":"3","size_leaf_vector":"1"}},{"base_weights":[7.9275236E-2,5.6429263E-2,-3.795987E-2],"categories":[],"categories_nodes":[],"categories_segments":[],"categories_sizes":[],"default_left":[0,0,0],"id":49,"left_children":[1,-1,-1],"loss_changes":[3.6610737E0,0E0,0E0],"parents":[2147483647,0,0],"right_children":[2,-1,-1],"split_conditions":[6.5889996E-1,5.6429263E-2,-3.795987E-2],"split_indices":[24,0,0],"split_type":[0,0,0],"sum_hessian":[3.36257E1,1.7605715E1,1.6019985E1],"tree_param":{"num_deleted":"0","num_feature":"28","num_nodes":"3","size_leaf_vector":"1"}},{"base_weights":[1.3807022E-2,-4.4025224E-2,4.428557E-2],"categories":[],"categories_nodes":[],"categories_segments":[],"categories_sizes":[],"default_left":[0,0,0],"id":50,"left_children":[1,-1,-1],"loss_changes":[3.2444813E0,0E0,0E0],"parents":[2147483647,0,0],"right_children":[2,-1,-1],"split_conditions":[8.8553626E8,-4.4025224E-2,4.428557E-2],"split_indices":[5,0,0],"split_type":[0,0,0],"sum_hessian":[3.4062206E1,1.627176E1,1.7790447E1],"tree_param":{"num_deleted":"0","num_feature":"28","num_nodes":"3","size_leaf_vector":"1"}},{"base_weights":[-6.0657047E-2,-5.700841E-2,3.6939282E-2],"categories":[],"categories_nodes":[],"categories_segments":[],"categories_sizes":[],"default_left":[0,0,0],"id":51,"left_children":[1,-1,-1],"loss_changes":[3.5577323E0,0E0,0E0],"parents":[2147483647,0,0],"right_children":[2,-1,-1],"split_conditions":[8.5E1,-5.700841E-2,3.6939282E-2],"split_indices":[19,0,0],"split_type":[0,0,0],"sum_hessian":[3.293543E1,1.6025951E1,1.6909477E1],"tree_param":{"num_deleted":"0","num_feature":"28","num_nodes":"3","size_leaf_vector":"1"}},{"base_weights":[-4.8328303E-2,-1.3077883E-2,-4.9468887E-4],"categories":[],"categories_nodes":[],"categories_segments":[],"categories_sizes":[],"default_left":[0,0,0],"id":52,"left_children":[1,-1,-1],"loss_changes":[5.9532307E-2,0E0,0E0],"parents":[2147483647,0,0],"right_children":[2,-1,-1],"split_conditions":[8.2E1,-1.3077883E-2,-4.9468887E-4],"split_indices":[10,0,0],"split_type":[0,0,0],"sum_hessian":[3.2173203E1,1.60955E1,1.6077702E1],"tree_param":{"num_deleted":"0","num_feature":"28","num_nodes":"3","size_leaf_vector":"1"}},{"base_weights":[-2.468542E-2,2.7672471E-2,-3.833932E-2],"categories":[],"categories_nodes":[],"categories_segments":[],"categories_sizes":[],"default_left":[0,0,0],"id":53,"left_children":[1,-1,-1],"loss_changes":[1.80446E0,0E0,0E0],"parents":[2147483647,0,0],"right_children":[2,-1,-1],"split_conditions":[9.809545E0,2.7672471E-2,-3.833932E-2],"split_indices":[18,0,0],"split_type":[0,0,0],"sum_hessian":[3.391061E1,1.7831821E1,1.6078787E1],"tree_param":{"num_deleted":"0","num_feature":"28","num_nodes":"3","size_leaf_vector":"1"}},{"base_weights":[-3.0563662E-2,-5.4278478E-2,4.255006E-2],"categories":[],"categories_nodes":[],"categories_segments":[],"categories_sizes":[],"default_left":[0,0,0],"id":54,"left_children":[1,-1,-1],"loss_changes":[3.8087206E0,0E0,0E0],"parents":[2147483647,0,0],"right_children":[2,-1,-1],"split_conditions":[8.3E1,-5.4278478E-2,4.255006E-2],"split_indices":[19,0,0],"split_type":[0,0,0],"sum_hessian":[3.3210243E1,1.6127455E1,1.7082787E1],"tree_param":{"num_deleted":"0","num_feature":"28","num_nodes":"3","size_leaf_vector":"1"}},{"base_weights":[-2.5974577E-3],"categories":[],"categories_nodes":[],"categories_segments":[],"categories_sizes":[],"default_left":[0],"id":55,"left_children":[-1],"loss_changes":[0E0],"parents":[2147483647],"right_children":[-1],"split_conditions":[-3.726721E-4],"split_indices":[0],"split_type":[0],"sum_hessian":[3.163282E1],"tree_param":{"num_deleted":"0","num_feature":"28","num_nodes":"1","size_leaf_vector":"1"}},{"base_weights":[-8.127456E-2,-5.5175986E-2,2.921262E-2],"categories":[],"categories_nodes":[],"categories_segments":[],"categories_sizes":[],"default_left":[0,0,0],"id":56,"left_children":[1,-1,-1],"loss_changes":[2.8801887E0,0E0,0E0],"parents":[2147483647,0,0],"right_children":[2,-1,-1],"split_conditions":[8.442677E1,-5.5175986E-2,2.921262E-2],"split_indices":[19,0,0],"split_type":[0,0,0],"sum_hessian":[3.303789E1,1.6025425E1,1.7012466E1],"tree_param":{"num_deleted":"0","num_feature":"28","num_nodes":"3","size_leaf_vector":"1"}},{"base_weights":[5.1182102E-2],"categories":[],"categories_nodes":[],"categories_segments":[],"categories_sizes":[],"default_left":[0],"id":57,"left_children":[-1],"loss_changes":[0E0],"parents":[2147483647],"right_children":[-1],"split_conditions":[7.3433886E-3],"split_indices":[0],"split_type":[0],"sum_hessian":[3.192785E1],"tree_param":{"num_deleted":"0","num_feature":"28","num_nodes":"1","size_leaf_vector":"1"}},{"base_weights":[-5.4563694E-2],"categories":[],"categories_nodes":[],"categories_segments":[],"categories_sizes":[],"default_left":[0],"id":58,"left_children":[-1],"loss_changes":[0E0],"parents":[2147483647],"right_children":[-1],"split_conditions":[-7.828564E-3],"split_indices":[0],"split_type":[0],"sum_hessian":[3.06026E1],"tree_param":{"num_deleted":"0","num_feature":"28","num_nodes":"1","size_leaf_vector":"1"}},{"base_weights":[-9.9256605E-2,-5.418349E-2,2.538293E-2],"categories":[],"categories_nodes":[],"categories_segments":[],"categories_sizes":[],"default_left":[0,0,0],"id":59,"left_children":[1,-1,-1],"loss_changes":[2.5093253E0,0E0,0E0],"parents":[2147483647,0,0],"right_children":[2,-1,-1],"split_conditions":[8.5777664E1,-5.418349E-2,2.538293E-2],"split_indices":[19,0,0],"split_type":[0,0,0],"sum_hessian":[3.2332096E1,1.6125858E1,1.620624E1],"tree_param":{"num_deleted":"0","num_feature":"28","num_nodes":"3","size_leaf_vector":"1"}},{"base_weights":[-8.2145184E-2,-3.9676096E-2,1.5367268E-2],"categories":[],"categories_nodes":[],"categories_segments":[],"categories_sizes":[],"default_left":[0,0,0],"id":60,"left_children":[1,-1,-1],"loss_changes":[1.2142643E0,0E0,0E0],"parents":[2147483647,0,0],"right_children":[2,-1,-1],"split_conditions":[8.4E1,-3.9676096E-2,1.5367268E-2],"split_indices":[19,0,0],"split_type":[0,0,0],"sum_hessian":[3.2655964E1,1.6149515E1,1.6506447E1],"tree_param":{"num_deleted":"0","num_feature":"28","num_nodes":"3","size_leaf_vector":"1"}},{"base_weights":[-5.411049E-2],"categories":[],"categories_nodes":[],"categories_segments":[],"categories_sizes":[],"default_left":[0],"id":61,"left_children":[-1],"loss_changes":[0E0],"parents":[2147483647],"right_children":[-1],"split_conditions":[-7.763541E-3],"split_indices":[0],"split_type":[0],"sum_hessian":[3.0630009E1],"tree_param":{"num_deleted":"0","num_feature":"28","num_nodes":"1","size_leaf_vector":"1"}},{"base_weights":[-4.518121E-3,3.7430003E-2,-3.9184906E-2],"categories":[],"categories_nodes":[],"categories_segments":[],"categories_sizes":[],"default_left":[0,0,0],"id":62,"left_children":[1,-1,-1],"loss_changes":[2.317044E0,0E0,0E0],"parents":[2147483647,0,0],"right_children":[2,-1,-1],"split_conditions":[1.6647851E0,3.7430003E-2,-3.9184906E-2],"split_indices":[7,0,0],"split_type":[0,0,0],"sum_hessian":[3.224658E1,1.6172018E1,1.607456E1],"tree_param":{"num_deleted":"0","num_feature":"28","num_nodes":"3","size_leaf_vector":"1"}},{"base_weights":[1.279594E-2],"categories":[],"categories_nodes":[],"categories_segments":[],"categories_sizes":[],"default_left":[0],"id":63,"left_children":[-1],"loss_changes":[0E0],"parents":[2147483647],"right_children":[-1],"split_conditions":[1.8359066E-3],"split_indices":[0],"split_type":[0],"sum_hessian":[3.117769E1],"tree_param":{"num_deleted":"0","num_feature":"28","num_nodes":"1","size_leaf_vector":"1"}},{"base_weights":[7.811248E-2],"categories":[],"categories_nodes":[],"categories_segments":[],"categories_sizes":[],"default_left":[0],"id":64,"left_children":[-1],"loss_changes":[0E0],"parents":[2147483647],"right_children":[-1],"split_conditions":[1.1207244E-2],"split_indices":[0],"split_type":[0],"sum_hessian":[3.0074429E1],"tree_param":{"num_deleted":"0","num_feature":"28","num_nodes":"1","size_leaf_vector":"1"}},{"base_weights":[2.2802558E-2],"categories":[],"categories_nodes":[],"categories_segments":[],"categories_sizes":[],"default_left":[0],"id":65,"left_children":[-1],"loss_changes":[0E0],"parents":[2147483647],"right_children":[-1],"split_conditions":[3.2716133E-3],"split_indices":[0],"split_type":[0],"sum_hessian":[3.094814E1],"tree_param":{"num_deleted":"0","num_feature":"28","num_nodes":"1","size_leaf_vector":"1"}},{"base_weights":[1.472339E-2],"categories":[],"categories_nodes":[],"categories_segments":[],"categories_sizes":[],"default_left":[0],"id":66,"left_children":[-1],"loss_changes":[0E0],"parents":[2147483647],"right_children":[-1],"split_conditions":[2.112449E-3],"split_indices":[0],"split_type":[0],"sum_hessian":[3.156484E1],"tree_param":{"num_deleted":"0","num_feature":"28","num_nodes":"1","size_leaf_vector":"1"}},{"base_weights":[-7.892065E-3],"categories":[],"categories_nodes":[],"categories_segments":[],"categories_sizes":[],"default_left":[0],"id":67,"left_children":[-1],"loss_changes":[0E0],"parents":[2147483647],"right_children":[-1],"split_conditions":[-1.1323196E-3],"split_indices":[0],"split_type":[0],"sum_hessian":[3.1926884E1],"tree_param":{"num_deleted":"0","num_feature":"28","num_nodes":"1","size_leaf_vector":"1"}},{"base_weights":[5.221031E-2,4.4080928E-2,-2.7514769E-2],"categories":[],"categories_nodes":[],"categories_segments":[],"categories_sizes":[],"default_left":[0,0,0],"id":68,"left_children":[1,-1,-1],"loss_changes":[2.086252E0,0E0,0E0],"parents":[2147483647,0,0],"right_children":[2,-1,-1],"split_conditions":[7.0710677E-1,4.4080928E-2,-2.7514769E-2],"split_indices":[25,0,0],"split_type":[0,0,0],"sum_hessian":[3.3233555E1,1.6286068E1,1.6947487E1],"tree_param":{"num_deleted":"0","num_feature":"28","num_nodes":"3","size_leaf_vector":"1"}},{"base_weights":[6.422687E-2],"categories":[],"categories_nodes":[],"categories_segments":[],"categories_sizes":[],"default_left":[0],"id":69,"left_children":[-1],"loss_changes":[0E0],"parents":[2147483647],"right_children":[-1],"split_conditions":[9.214996E-3],"split_indices":[0],"split_type":[0],"sum_hessian":[3.0340256E1],"tree_param":{"num_deleted":"0","num_feature":"28","num_nodes":"1","size_leaf_vector":"1"}},{"base_weights":[1.403159E-2],"categories":[],"categories_nodes":[],"categories_segments":[],"categories_sizes":[],"default_left":[0],"id":70,"left_children":[-1],"loss_changes":[0E0],"parents":[2147483647],"right_children":[-1],"split_conditions":[2.0131923E-3],"split_indices":[0],"split_type":[0],"sum_hessian":[3.1274296E1],"tree_param":{"num_deleted":"0","num_feature":"28","num_nodes":"1","size_leaf_vector":"1"}},{"base_weights":[1.647572E-2],"categories":[],"categories_nodes":[],"categories_segments":[],"categories_sizes":[],"default_left":[0],"id":71,"left_children":[-1],"loss_changes":[0E0],"parents":[2147483647],"right_children":[-1],"split_conditions":[2.3638657E-3],"split_indices":[0],"split_type":[0],"sum_hessian":[2.9019516E1],"tree_param":{"num_deleted":"0","num_feature":"28","num_nodes":"1","size_leaf_vector":"1"}},{"base_weights":[1.1288592E-2],"categories":[],"categories_nodes":[],"categories_segments":[],"categories_sizes":[],"default_left":[0],"id":72,"left_children":[-1],"loss_changes":[0E0],"parents":[2147483647],"right_children":[-1],"split_conditions":[1.6196388E-3],"split_indices":[0],"split_type":[0],"sum_hessian":[3.1457846E1],"tree_param":{"num_deleted":"0","num_feature":"28","num_nodes":"1","size_leaf_vector":"1"}},{"base_weights":[-2.8478203E-2],"categories":[],"categories_nodes":[],"categories_segments":[],"categories_sizes":[],"default_left":[0],"id":73,"left_children":[-1],"loss_changes":[0E0],"parents":[2147483647],"right_children":[-1],"split_conditions":[-4.0859305E-3],"split_indices":[0],"split_type":[0],"sum_hessian":[2.9578014E1],"tree_param":{"num_deleted":"0","num_feature":"28","num_nodes":"1","size_leaf_vector":"1"}},{"base_weights":[-1.0160878E-2,2.9640565E-2,-3.244114E-2],"categories":[],"categories_nodes":[],"categories_segments":[],"categories_sizes":[],"default_left":[0,0,0],"id":74,"left_children":[1,-1,-1],"loss_changes":[1.5239127E0,0E0,0E0],"parents":[2147483647,0,0],"right_children":[2,-1,-1],"split_conditions":[1.6821082E0,2.9640565E-2,-3.244114E-2],"split_indices":[7,0,0],"split_type":[0,0,0],"sum_hessian":[3.2293537E1,1.605839E1,1.6235146E1],"tree_param":{"num_deleted":"0","num_feature":"28","num_nodes":"3","size_leaf_vector":"1"}},{"base_weights":[-2.4309866E-2],"categories":[],"categories_nodes":[],"categories_segments":[],"categories_sizes":[],"default_left":[0],"id":75,"left_children":[-1],"loss_changes":[0E0],"parents":[2147483647],"right_children":[-1],"split_conditions":[-3.4878752E-3],"split_indices":[0],"split_type":[0],"sum_hessian":[3.1263544E1],"tree_param":{"num_deleted":"0","num_feature":"28","num_nodes":"1","size_leaf_vector":"1"}},{"base_weights":[4.4747526E-3],"categories":[],"categories_nodes":[],"categories_segments":[],"categories_sizes":[],"default_left":[0],"id":76,"left_children":[-1],"loss_changes":[0E0],"parents":[2147483647],"right_children":[-1],"split_conditions":[6.4201833E-4],"split_indices":[0],"split_type":[0],"sum_hessian":[3.0697792E1],"tree_param":{"num_deleted":"0","num_feature":"28","num_nodes":"1","size_leaf_vector":"1"}},{"base_weights":[7.9205674E-5],"categories":[],"categories_nodes":[],"categories_segments":[],"categories_sizes":[],"default_left":[0],"id":77,"left_children":[-1],"loss_changes":[0E0],"parents":[2147483647],"right_children":[-1],"split_conditions":[1.1364091E-5],"split_indices":[0],"split_type":[0],"sum_hessian":[2.974128E1],"tree_param":{"num_deleted":"0","num_feature":"28","num_nodes":"1","size_leaf_vector":"1"}},{"base_weights":[-4.9706075E-2],"categories":[],"categories_nodes":[],"categories_segments":[],"categories_sizes":[],"default_left":[0],"id":78,"left_children":[-1],"loss_changes":[0E0],"parents":[2147483647],"right_children":[-1],"split_conditions":[-7.1316147E-3],"split_indices":[0],"split_type":[0],"sum_hessian":[3.0476547E1],"tree_param":{"num_deleted":"0","num_feature":"28","num_nodes":"1","size_leaf_vector":"1"}},{"base_weights":[-8.9587376E-2],"categories":[],"categories_nodes":[],"categories_segments":[],"categories_sizes":[],"default_left":[0],"id":79,"left_children":[-1],"loss_changes":[0E0],"parents":[2147483647],"right_children":[-1],"split_conditions":[-1.2853612E-2],"split_indices":[0],"split_type":[0],"sum_hessian":[3.0804405E1],"tree_param":{"num_deleted":"0","num_feature":"28","num_nodes":"1","size_leaf_vector":"1"}},{"base_weights":[-3.3319548E-2],"categories":[],"categories_nodes":[],"categories_segments":[],"categories_sizes":[],"default_left":[0],"id":80,"left_children":[-1],"loss_changes":[0E0],"parents":[2147483647],"right_children":[-1],"split_conditions":[-4.780546E-3],"split_indices":[0],"split_type":[0],"sum_hessian":[3.0724306E1],"tree_param":{"num_deleted":"0","num_feature":"28","num_nodes":"1","size_leaf_vector":"1"}},{"base_weights":[-5.9131343E-2],"categories":[],"categories_nodes":[],"categories_segments":[],"categories_sizes":[],"default_left":[0],"id":81,"left_children":[-1],"loss_changes":[0E0],"parents":[2147483647],"right_children":[-1],"split_conditions":[-8.483912E-3],"split_indices":[0],"split_type":[0],"sum_hessian":[3.0670809E1],"tree_param":{"num_deleted":"0","num_feature":"28","num_nodes":"1","size_leaf_vector":"1"}},{"base_weights":[-1.2646932E-2],"categories":[],"categories_nodes":[],"categories_segments":[],"categories_sizes":[],"default_left":[0],"id":82,"left_children":[-1],"loss_changes":[0E0],"parents":[2147483647],"right_children":[-1],"split_conditions":[-1.8145276E-3],"split_indices":[0],"split_type":[0],"sum_hessian":[2.973487E1],"tree_param":{"num_deleted":"0","num_feature":"28","num_nodes":"1","size_leaf_vector":"1"}},{"base_weights":[1.800319E-1],"categories":[],"categories_nodes":[],"categories_segments":[],"categories_sizes":[],"default_left":[0],"id":83,"left_children":[-1],"loss_changes":[0E0],"parents":[2147483647],"right_children":[-1],"split_conditions":[2.5830204E-2],"split_indices":[0],"split_type":[0],"sum_hessian":[2.9947111E1],"tree_param":{"num_deleted":"0","num_feature":"28","num_nodes":"1","size_leaf_vector":"1"}},{"base_weights":[2.8639996E-2],"categories":[],"categories_nodes":[],"categories_segments":[],"categories_sizes":[],"default_left":[0],"id":84,"left_children":[-1],"loss_changes":[0E0],"parents":[2147483647],"right_children":[-1],"split_conditions":[4.1091437E-3],"split_indices":[0],"split_type":[0],"sum_hessian":[3.0424784E1],"tree_param":{"num_deleted":"0","num_feature":"28","num_nodes":"1","size_leaf_vector":"1"}},{"base_weights":[2.45383E-2],"categories":[],"categories_nodes":[],"categories_segments":[],"categories_sizes":[],"default_left":[0],"id":85,"left_children":[-1],"loss_changes":[0E0],"parents":[2147483647],"right_children":[-1],"split_conditions":[3.5206499E-3],"split_indices":[0],"split_type":[0],"sum_hessian":[3.058684E1],"tree_param":{"num_deleted":"0","num_feature":"28","num_nodes":"1","size_leaf_vector":"1"}},{"base_weights":[-1.4314993E-1],"categories":[],"categories_nodes":[],"categories_segments":[],"categories_sizes":[],"default_left":[0],"id":86,"left_children":[-1],"loss_changes":[0E0],"parents":[2147483647],"right_children":[-1],"split_conditions":[-2.0538537E-2],"split_indices":[0],"split_type":[0],"sum_hessian":[3.0849348E1],"tree_param":{"num_deleted":"0","num_feature":"28","num_nodes":"1","size_leaf_vector":"1"}},{"base_weights":[9.8039694E-2],"categories":[],"categories_nodes":[],"categories_segments":[],"categories_sizes":[],"default_left":[0],"id":87,"left_children":[-1],"loss_changes":[0E0],"parents":[2147483647],"right_children":[-1],"split_conditions":[1.4066315E-2],"split_indices":[0],"split_type":[0],"sum_hessian":[2.9547123E1],"tree_param":{"num_deleted":"0","num_feature":"28","num_nodes":"1","size_leaf_vector":"1"}},{"base_weights":[-1.9215985E-3],"categories":[],"categories_nodes":[],"categories_segments":[],"categories_sizes":[],"default_left":[0],"id":88,"left_children":[-1],"loss_changes":[0E0],"parents":[2147483647],"right_children":[-1],"split_conditions":[-2.757027E-4],"split_indices":[0],"split_type":[0],"sum_hessian":[3.084262E1],"tree_param":{"num_deleted":"0","num_feature":"28","num_nodes":"1","size_leaf_vector":"1"}},{"base_weights":[-2.5780724E-2],"categories":[],"categories_nodes":[],"categories_segments":[],"categories_sizes":[],"default_left":[0],"id":89,"left_children":[-1],"loss_changes":[0E0],"parents":[2147483647],"right_children":[-1],"split_conditions":[-3.6989078E-3],"split_indices":[0],"split_type":[0],"sum_hessian":[3.1206882E1],"tree_param":{"num_deleted":"0","num_feature":"28","num_nodes":"1","size_leaf_vector":"1"}},{"base_weights":[-4.4788294E-2],"categories":[],"categories_nodes":[],"categories_segments":[],"categories_sizes":[],"default_left":[0],"id":90,"left_children":[-1],"loss_changes":[0E0],"parents":[2147483647],"right_children":[-1],"split_conditions":[-6.426032E-3],"split_indices":[0],"split_type":[0],"sum_hessian":[3.0699509E1],"tree_param":{"num_deleted":"0","num_feature":"28","num_nodes":"1","size_leaf_vector":"1"}},{"base_weights":[-1.305045E-1],"categories":[],"categories_nodes":[],"categories_segments":[],"categories_sizes":[],"default_left":[0],"id":91,"left_children":[-1],"loss_changes":[0E0],"parents":[2147483647],"right_children":[-1],"split_conditions":[-1.8724227E-2],"split_indices":[0],"split_type":[0],"sum_hessian":[2.9908012E1],"tree_param":{"num_deleted":"0","num_feature":"28","num_nodes":"1","size_leaf_vector":"1"}},{"base_weights":[-2.047769E-2],"categories":[],"categories_nodes":[],"categories_segments":[],"categories_sizes":[],"default_left":[0],"id":92,"left_children":[-1],"loss_changes":[0E0],"parents":[2147483647],"right_children":[-1],"split_conditions":[-2.938051E-3],"split_indices":[0],"split_type":[0],"sum_hessian":[3.0618624E1],"tree_param":{"num_deleted":"0","num_feature":"28","num_nodes":"1","size_leaf_vector":"1"}},{"base_weights":[1.0298665E-1],"categories":[],"categories_nodes":[],"categories_segments":[],"categories_sizes":[],"default_left":[0],"id":93,"left_children":[-1],"loss_changes":[0E0],"parents":[2147483647],"right_children":[-1],"split_conditions":[1.4776083E-2],"split_indices":[0],"split_type":[0],"sum_hessian":[2.8475431E1],"tree_param":{"num_deleted":"0","num_feature":"28","num_nodes":"1","size_leaf_vector":"1"}},{"base_weights":[-9.492919E-2],"categories":[],"categories_nodes":[],"categories_segments":[],"categories_sizes":[],"default_left":[0],"id":94,"left_children":[-1],"loss_changes":[0E0],"parents":[2147483647],"right_children":[-1],"split_conditions":[-1.3620033E-2],"split_indices":[0],"split_type":[0],"sum_hessian":[3.1218977E1],"tree_param":{"num_deleted":"0","num_feature":"28","num_nodes":"1","size_leaf_vector":"1"}},{"base_weights":[-2.5079248E-2],"categories":[],"categories_nodes":[],"categories_segments":[],"categories_sizes":[],"default_left":[0],"id":95,"left_children":[-1],"loss_changes":[0E0],"parents":[2147483647],"right_children":[-1],"split_conditions":[-3.598263E-3],"split_indices":[0],"split_type":[0],"sum_hessian":[3.1132156E1],"tree_param":{"num_deleted":"0","num_feature":"28","num_nodes":"1","size_leaf_vector":"1"}},{"base_weights":[6.818022E-2],"categories":[],"categories_nodes":[],"categories_segments":[],"categories_sizes":[],"default_left":[0],"id":96,"left_children":[-1],"loss_changes":[0E0],"parents":[2147483647],"right_children":[-1],"split_conditions":[9.782205E-3],"split_indices":[0],"split_type":[0],"sum_hessian":[2.9783224E1],"tree_param":{"num_deleted":"0","num_feature":"28","num_nodes":"1","size_leaf_vector":"1"}},{"base_weights":[8.542046E-2],"categories":[],"categories_nodes":[],"categories_segments":[],"categories_sizes":[],"default_left":[0],"id":97,"left_children":[-1],"loss_changes":[0E0],"parents":[2147483647],"right_children":[-1],"split_conditions":[1.2255761E-2],"split_indices":[0],"split_type":[0],"sum_hessian":[3.2000286E1],"tree_param":{"num_deleted":"0","num_feature":"28","num_nodes":"1","size_leaf_vector":"1"}},{"base_weights":[-2.8768543E-2],"categories":[],"categories_nodes":[],"categories_segments":[],"categories_sizes":[],"default_left":[0],"id":98,"left_children":[-1],"loss_changes":[0E0],"parents":[2147483647],"right_children":[-1],"split_conditions":[-4.127587E-3],"split_indices":[0],"split_type":[0],"sum_hessian":[2.9554014E1],"tree_param":{"num_deleted":"0","num_feature":"28","num_nodes":"1","size_leaf_vector":"1"}},{"base_weights":[-1.2499916E-1],"categories":[],"categories_nodes":[],"categories_segments":[],"categories_sizes":[],"default_left":[0],"id":99,"left_children":[-1],"loss_changes":[0E0],"parents":[2147483647],"right_children":[-1],"split_conditions":[-1.7934343E-2],"split_indices":[0],"split_type":[0],"sum_hessian":[2.9074474E1],"tree_param":{"num_deleted":"0","num_feature":"28","num_nodes":"1","size_leaf_vector":"1"}},{"base_weights":[-4.8252795E-2],"categories":[],"categories_nodes":[],"categories_segments":[],"categories_sizes":[],"default_left":[0],"id":100,"left_children":[-1],"loss_changes":[0E0],"parents":[2147483647],"right_children":[-1],"split_conditions":[-6.923104E-3],"split_indices":[0],"split_type":[0],"sum_hessian":[3.0917307E1],"tree_param":{"num_deleted":"0","num_feature":"28","num_nodes":"1","size_leaf_vector":"1"}},{"base_weights":[-3.6407165E-2],"categories":[],"categories_nodes":[],"categories_segments":[],"categories_sizes":[],"default_left":[0],"id":101,"left_children":[-1],"loss_changes":[0E0],"parents":[2147483647],"right_children":[-1],"split_conditions":[-5.223544E-3],"split_indices":[0],"split_type":[0],"sum_hessian":[3.0884327E1],"tree_param":{"num_deleted":"0","num_feature":"28","num_nodes":"1","size_leaf_vector":"1"}},{"base_weights":[1.3167882E-2],"categories":[],"categories_nodes":[],"categories_segments":[],"categories_sizes":[],"default_left":[0],"id":102,"left_children":[-1],"loss_changes":[0E0],"parents":[2147483647],"right_children":[-1],"split_conditions":[1.8892713E-3],"split_indices":[0],"split_type":[0],"sum_hessian":[3.0093092E1],"tree_param":{"num_deleted":"0","num_feature":"28","num_nodes":"1","size_leaf_vector":"1"}},{"base_weights":[5.421883E-2],"categories":[],"categories_nodes":[],"categories_segments":[],"categories_sizes":[],"default_left":[0],"id":103,"left_children":[-1],"loss_changes":[0E0],"parents":[2147483647],"right_children":[-1],"split_conditions":[7.779085E-3],"split_indices":[0],"split_type":[0],"sum_hessian":[3.0195387E1],"tree_param":{"num_deleted":"0","num_feature":"28","num_nodes":"1","size_leaf_vector":"1"}},{"base_weights":[1.7240282E-2],"categories":[],"categories_nodes":[],"categories_segments":[],"categories_sizes":[],"default_left":[0],"id":104,"left_children":[-1],"loss_changes":[0E0],"parents":[2147483647],"right_children":[-1],"split_conditions":[2.4735618E-3],"split_indices":[0],"split_type":[0],"sum_hessian":[3.002678E1],"tree_param":{"num_deleted":"0","num_feature":"28","num_nodes":"1","size_leaf_vector":"1"}},{"base_weights":[5.9543636E-2],"categories":[],"categories_nodes":[],"categories_segments":[],"categories_sizes":[],"default_left":[0],"id":105,"left_children":[-1],"loss_changes":[0E0],"parents":[2147483647],"right_children":[-1],"split_conditions":[8.543066E-3],"split_indices":[0],"split_type":[0],"sum_hessian":[2.9012419E1],"tree_param":{"num_deleted":"0","num_feature":"28","num_nodes":"1","size_leaf_vector":"1"}},{"base_weights":[-9.4051875E-2],"categories":[],"categories_nodes":[],"categories_segments":[],"categories_sizes":[],"default_left":[0],"id":106,"left_children":[-1],"loss_changes":[0E0],"parents":[2147483647],"right_children":[-1],"split_conditions":[-1.349416E-2],"split_indices":[0],"split_type":[0],"sum_hessian":[3.1082245E1],"tree_param":{"num_deleted":"0","num_feature":"28","num_nodes":"1","size_leaf_vector":"1"}},{"base_weights":[9.222753E-2],"categories":[],"categories_nodes":[],"categories_segments":[],"categories_sizes":[],"default_left":[0],"id":107,"left_children":[-1],"loss_changes":[0E0],"parents":[2147483647],"right_children":[-1],"split_conditions":[1.3232411E-2],"split_indices":[0],"split_type":[0],"sum_hessian":[3.1058445E1],"tree_param":{"num_deleted":"0","num_feature":"28","num_nodes":"1","size_leaf_vector":"1"}},{"base_weights":[5.2322913E-2],"categories":[],"categories_nodes":[],"categories_segments":[],"categories_sizes":[],"default_left":[0],"id":108,"left_children":[-1],"loss_changes":[0E0],"parents":[2147483647],"right_children":[-1],"split_conditions":[7.507067E-3],"split_indices":[0],"split_type":[0],"sum_hessian":[3.0315523E1],"tree_param":{"num_deleted":"0","num_feature":"28","num_nodes":"1","size_leaf_vector":"1"}},{"base_weights":[7.132382E-2],"categories":[],"categories_nodes":[],"categories_segments":[],"categories_sizes":[],"default_left":[0],"id":109,"left_children":[-1],"loss_changes":[0E0],"parents":[2147483647],"right_children":[-1],"split_conditions":[1.0233236E-2],"split_indices":[0],"split_type":[0],"sum_hessian":[3.0461615E1],"tree_param":{"num_deleted":"0","num_feature":"28","num_nodes":"1","size_leaf_vector":"1"}},{"base_weights":[-3.745149E-2],"categories":[],"categories_nodes":[],"categories_segments":[],"categories_sizes":[],"default_left":[0],"id":110,"left_children":[-1],"loss_changes":[0E0],"parents":[2147483647],"right_children":[-1],"split_conditions":[-5.373379E-3],"split_indices":[0],"split_type":[0],"sum_hessian":[3.1383986E1],"tree_param":{"num_deleted":"0","num_feature":"28","num_nodes":"1","size_leaf_vector":"1"}},{"base_weights":[2.7527442E-2],"categories":[],"categories_nodes":[],"categories_segments":[],"categories_sizes":[],"default_left":[0],"id":111,"left_children":[-1],"loss_changes":[0E0],"parents":[2147483647],"right_children":[-1],"split_conditions":[3.9495192E-3],"split_indices":[0],"split_type":[0],"sum_hessian":[3.1563736E1],"tree_param":{"num_deleted":"0","num_feature":"28","num_nodes":"1","size_leaf_vector":"1"}},{"base_weights":[5.529876E-2],"categories":[],"categories_nodes":[],"categories_segments":[],"categories_sizes":[],"default_left":[0],"id":112,"left_children":[-1],"loss_changes":[0E0],"parents":[2147483647],"right_children":[-1],"split_conditions":[7.934029E-3],"split_indices":[0],"split_type":[0],"sum_hessian":[2.995694E1],"tree_param":{"num_deleted":"0","num_feature":"28","num_nodes":"1","size_leaf_vector":"1"}},{"base_weights":[-6.932554E-2],"categories":[],"categories_nodes":[],"categories_segments":[],"categories_sizes":[],"default_left":[0],"id":113,"left_children":[-1],"loss_changes":[0E0],"parents":[2147483647],"right_children":[-1],"split_conditions":[-9.946531E-3],"split_indices":[0],"split_type":[0],"sum_hessian":[2.963386E1],"tree_param":{"num_deleted":"0","num_feature":"28","num_nodes":"1","size_leaf_vector":"1"}},{"base_weights":[-1.354293E-1],"categories":[],"categories_nodes":[],"categories_segments":[],"categories_sizes":[],"default_left":[0],"id":114,"left_children":[-1],"loss_changes":[0E0],"parents":[2147483647],"right_children":[-1],"split_conditions":[-1.9430814E-2],"split_indices":[0],"split_type":[0],"sum_hessian":[2.9868675E1],"tree_param":{"num_deleted":"0","num_feature":"28","num_nodes":"1","size_leaf_vector":"1"}},{"base_weights":[-4.147721E-2],"categories":[],"categories_nodes":[],"categories_segments":[],"categories_sizes":[],"default_left":[0],"id":115,"left_children":[-1],"loss_changes":[0E0],"parents":[2147483647],"right_children":[-1],"split_conditions":[-5.9509724E-3],"split_indices":[0],"split_type":[0],"sum_hessian":[3.1530487E1],"tree_param":{"num_deleted":"0","num_feature":"28","num_nodes":"1","size_leaf_vector":"1"}},{"base_weights":[9.8704554E-2],"categories":[],"categories_nodes":[],"categories_segments":[],"categories_sizes":[],"default_left":[0],"id":116,"left_children":[-1],"loss_changes":[0E0],"parents":[2147483647],"right_children":[-1],"split_conditions":[1.4161706E-2],"split_indices":[0],"split_type":[0],"sum_hessian":[3.0150267E1],"tree_param":{"num_deleted":"0","num_feature":"28","num_nodes":"1","size_leaf_vector":"1"}},{"base_weights":[8.6081855E-2],"categories":[],"categories_nodes":[],"categories_segments":[],"categories_sizes":[],"default_left":[0],"id":117,"left_children":[-1],"loss_changes":[0E0],"parents":[2147483647],"right_children":[-1],"split_conditions":[1.2350655E-2],"split_indices":[0],"split_type":[0],"sum_hessian":[2.8674898E1],"tree_param":{"num_deleted":"0","num_feature":"28","num_nodes":"1","size_leaf_vector":"1"}},{"base_weights":[4.2145364E-2],"categories":[],"categories_nodes":[],"categories_segments":[],"categories_sizes":[],"default_left":[0],"id":118,"left_children":[-1],"loss_changes":[0E0],"parents":[2147483647],"right_children":[-1],"split_conditions":[6.0468363E-3],"split_indices":[0],"split_type":[0],"sum_hessian":[3.0858871E1],"tree_param":{"num_deleted":"0","num_feature":"28","num_nodes":"1","size_leaf_vector":"1"}},{"base_weights":[4.432411E-2],"categories":[],"categories_nodes":[],"categories_segments":[],"categories_sizes":[],"default_left":[0],"id":119,"left_children":[-1],"loss_changes":[0E0],"parents":[2147483647],"right_children":[-1],"split_conditions":[6.3594333E-3],"split_indices":[0],"split_type":[0],"sum_hessian":[2.939846E1],"tree_param":{"num_deleted":"0","num_feature":"28","num_nodes":"1","size_leaf_vector":"1"}},{"base_weights":[3.2809798E-2],"categories":[],"categories_nodes":[],"categories_segments":[],"categories_sizes":[],"default_left":[0],"id":120,"left_children":[-1],"loss_changes":[0E0],"parents":[2147483647],"right_children":[-1],"split_conditions":[4.707409E-3],"split_indices":[0],"split_type":[0],"sum_hessian":[3.0533388E1],"tree_param":{"num_deleted":"0","num_feature":"28","num_nodes":"1","size_leaf_vector":"1"}},{"base_weights":[-2.7376771E-2],"categories":[],"categories_nodes":[],"categories_segments":[],"categories_sizes":[],"default_left":[0],"id":121,"left_children":[-1],"loss_changes":[0E0],"parents":[2147483647],"right_children":[-1],"split_conditions":[-3.927902E-3],"split_indices":[0],"split_type":[0],"sum_hessian":[3.1211727E1],"tree_param":{"num_deleted":"0","num_feature":"28","num_nodes":"1","size_leaf_vector":"1"}},{"base_weights":[3.6401039E-3,3.8485967E-2,-3.7868146E-2],"categories":[],"categories_nodes":[],"categories_segments":[],"categories_sizes":[],"default_left":[0,0,0],"id":122,"left_children":[1,-1,-1],"loss_changes":[2.3080795E0,0E0,0E0],"parents":[2147483647,0,0],"right_children":[2,-1,-1],"split_conditions":[6.489258E-1,3.8485967E-2,-3.7868146E-2],"split_indices":[25,0,0],"split_type":[0,0,0],"sum_hessian":[3.234511E1,1.6312521E1,1.603259E1],"tree_param":{"num_deleted":"0","num_feature":"28","num_nodes":"3","size_leaf_vector":"1"}},{"base_weights":[-1.6456587E-3],"categories":[],"categories_nodes":[],"categories_segments":[],"categories_sizes":[],"default_left":[0],"id":123,"left_children":[-1],"loss_changes":[0E0],"parents":[2147483647],"right_children":[-1],"split_conditions":[-2.3611206E-4],"split_indices":[0],"split_type":[0],"sum_hessian":[2.9451454E1],"tree_param":{"num_deleted":"0","num_feature":"28","num_nodes":"1","size_leaf_vector":"1"}},{"base_weights":[-2.7873075E-2],"categories":[],"categories_nodes":[],"categories_segments":[],"categories_sizes":[],"default_left":[0],"id":124,"left_children":[-1],"loss_changes":[0E0],"parents":[2147483647],"right_children":[-1],"split_conditions":[-3.9991094E-3],"split_indices":[0],"split_type":[0],"sum_hessian":[2.999793E1],"tree_param":{"num_deleted":"0","num_feature":"28","num_nodes":"1","size_leaf_vector":"1"}},{"base_weights":[3.393208E-2],"categories":[],"categories_nodes":[],"categories_segments":[],"categories_sizes":[],"default_left":[0],"id":125,"left_children":[-1],"loss_changes":[0E0],"parents":[2147483647],"right_children":[-1],"split_conditions":[4.868429E-3],"split_indices":[0],"split_type":[0],"sum_hessian":[3.0074366E1],"tree_param":{"num_deleted":"0","num_feature":"28","num_nodes":"1","size_leaf_vector":"1"}},{"base_weights":[-1.4953433E-1],"categories":[],"categories_nodes":[],"categories_segments":[],"categories_sizes":[],"default_left":[0],"id":126,"left_children":[-1],"loss_changes":[0E0],"parents":[2147483647],"right_children":[-1],"split_conditions":[-2.1454545E-2],"split_indices":[0],"split_type":[0],"sum_hessian":[3.0264944E1],"tree_param":{"num_deleted":"0","num_feature":"28","num_nodes":"1","size_leaf_vector":"1"}},{"base_weights":[-2.2460038E-3],"categories":[],"categories_nodes":[],"categories_segments":[],"categories_sizes":[],"default_left":[0],"id":127,"left_children":[-1],"loss_changes":[0E0],"parents":[2147483647],"right_children":[-1],"split_conditions":[-3.22247E-4],"split_indices":[0],"split_type":[0],"sum_hessian":[3.0000692E1],"tree_param":{"num_deleted":"0","num_feature":"28","num_nodes":"1","size_leaf_vector":"1"}},{"base_weights":[3.181163E-2],"categories":[],"categories_nodes":[],"categories_segments":[],"categories_sizes":[],"default_left":[0],"id":128,"left_children":[-1],"loss_changes":[0E0],"parents":[2147483647],"right_children":[-1],"split_conditions":[4.564196E-3],"split_indices":[0],"split_type":[0],"sum_hessian":[2.9058523E1],"tree_param":{"num_deleted":"0","num_feature":"28","num_nodes":"1","size_leaf_vector":"1"}},{"base_weights":[-2.8481461E-2],"categories":[],"categories_nodes":[],"categories_segments":[],"categories_sizes":[],"default_left":[0],"id":129,"left_children":[-1],"loss_changes":[0E0],"parents":[2147483647],"right_children":[-1],"split_conditions":[-4.086398E-3],"split_indices":[0],"split_type":[0],"sum_hessian":[3.1320496E1],"tree_param":{"num_deleted":"0","num_feature":"28","num_nodes":"1","size_leaf_vector":"1"}},{"base_weights":[-6.5931766E-3],"categories":[],"categories_nodes":[],"categories_segments":[],"categories_sizes":[],"default_left":[0],"id":130,"left_children":[-1],"loss_changes":[0E0],"parents":[2147483647],"right_children":[-1],"split_conditions":[-9.459607E-4],"split_indices":[0],"split_type":[0],"sum_hessian":[2.9634533E1],"tree_param":{"num_deleted":"0","num_feature":"28","num_nodes":"1","size_leaf_vector":"1"}},{"base_weights":[-2.738106E-2],"categories":[],"categories_nodes":[],"categories_segments":[],"categories_sizes":[],"default_left":[0],"id":131,"left_children":[-1],"loss_changes":[0E0],"parents":[2147483647],"right_children":[-1],"split_conditions":[-3.928517E-3],"split_indices":[0],"split_type":[0],"sum_hessian":[3.0457777E1],"tree_param":{"num_deleted":"0","num_feature":"28","num_nodes":"1","size_leaf_vector":"1"}},{"base_weights":[6.1454214E-2],"categories":[],"categories_nodes":[],"categories_segments":[],"categories_sizes":[],"default_left":[0],"id":132,"left_children":[-1],"loss_changes":[0E0],"parents":[2147483647],"right_children":[-1],"split_conditions":[8.8171875E-3],"split_indices":[0],"split_type":[0],"sum_hessian":[3.096363E1],"tree_param":{"num_deleted":"0","num_feature":"28","num_nodes":"1","size_leaf_vector":"1"}},{"base_weights":[-6.931224E-2],"categories":[],"categories_nodes":[],"categories_segments":[],"categories_sizes":[],"default_left":[0],"id":133,"left_children":[-1],"loss_changes":[0E0],"parents":[2147483647],"right_children":[-1],"split_conditions":[-9.944622E-3],"split_indices":[0],"split_type":[0],"sum_hessian":[3.0201027E1],"tree_param":{"num_deleted":"0","num_feature":"28","num_nodes":"1","size_leaf_vector":"1"}},{"base_weights":[-1.6831424E-2],"categories":[],"categories_nodes":[],"categories_segments":[],"categories_sizes":[],"default_left":[0],"id":134,"left_children":[-1],"loss_changes":[0E0],"parents":[2147483647],"right_children":[-1],"split_conditions":[-2.4149006E-3],"split_indices":[0],"split_type":[0],"sum_hessian":[3.1593199E1],"tree_param":{"num_deleted":"0","num_feature":"28","num_nodes":"1","size_leaf_vector":"1"}},{"base_weights":[4.8727304E-2],"categories":[],"categories_nodes":[],"categories_segments":[],"categories_sizes":[],"default_left":[0],"id":135,"left_children":[-1],"loss_changes":[0E0],"parents":[2147483647],"right_children":[-1],"split_conditions":[6.991185E-3],"split_indices":[0],"split_type":[0],"sum_hessian":[3.1021343E1],"tree_param":{"num_deleted":"0","num_feature":"28","num_nodes":"1","size_leaf_vector":"1"}},{"base_weights":[3.5663698E-2],"categories":[],"categories_nodes":[],"categories_segments":[],"categories_sizes":[],"default_left":[0],"id":136,"left_children":[-1],"loss_changes":[0E0],"parents":[2147483647],"right_children":[-1],"split_conditions":[5.1168744E-3],"split_indices":[0],"split_type":[0],"sum_hessian":[2.9309479E1],"tree_param":{"num_deleted":"0","num_feature":"28","num_nodes":"1","size_leaf_vector":"1"}},{"base_weights":[1.1899679E-1],"categories":[],"categories_nodes":[],"categories_segments":[],"categories_sizes":[],"default_left":[0],"id":137,"left_children":[-1],"loss_changes":[0E0],"parents":[2147483647],"right_children":[-1],"split_conditions":[1.7073149E-2],"split_indices":[0],"split_type":[0],"sum_hessian":[3.125564E1],"tree_param":{"num_deleted":"0","num_feature":"28","num_nodes":"1","size_leaf_vector":"1"}},{"base_weights":[1.4012349E-2],"categories":[],"categories_nodes":[],"categories_segments":[],"categories_sizes":[],"default_left":[0],"id":138,"left_children":[-1],"loss_changes":[0E0],"parents":[2147483647],"right_children":[-1],"split_conditions":[2.0104316E-3],"split_indices":[0],"split_type":[0],"sum_hessian":[3.0813866E1],"tree_param":{"num_deleted":"0","num_feature":"28","num_nodes":"1","size_leaf_vector":"1"}},{"base_weights":[3.489264E-2],"categories":[],"categories_nodes":[],"categories_segments":[],"categories_sizes":[],"default_left":[0],"id":139,"left_children":[-1],"loss_changes":[0E0],"parents":[2147483647],"right_children":[-1],"split_conditions":[5.0062463E-3],"split_indices":[0],"split_type":[0],"sum_hessian":[3.0309547E1],"tree_param":{"num_deleted":"0","num_feature":"28","num_nodes":"1","size_leaf_vector":"1"}},{"base_weights":[-1.8250318E-2],"categories":[],"categories_nodes":[],"categories_segments":[],"categories_sizes":[],"default_left":[0],"id":140,"left_children":[-1],"loss_changes":[0E0],"parents":[2147483647],"right_children":[-1],"split_conditions":[-2.6184774E-3],"split_indices":[0],"split_type":[0],"sum_hessian":[3.1343248E1],"tree_param":{"num_deleted":"0","num_feature":"28","num_nodes":"1","size_leaf_vector":"1"}},{"base_weights":[-9.077444E-2],"categories":[],"categories_nodes":[],"categories_segments":[],"categories_sizes":[],"default_left":[0],"id":141,"left_children":[-1],"loss_changes":[0E0],"parents":[2147483647],"right_children":[-1],"split_conditions":[-1.3023927E-2],"split_indices":[0],"split_type":[0],"sum_hessian":[3.0413895E1],"tree_param":{"num_deleted":"0","num_feature":"28","num_nodes":"1","size_leaf_vector":"1"}},{"base_weights":[-1.5013106E-1],"categories":[],"categories_nodes":[],"categories_segments":[],"categories_sizes":[],"default_left":[0],"id":142,"left_children":[-1],"loss_changes":[0E0],"parents":[2147483647],"right_children":[-1],"split_conditions":[-2.1540161E-2],"split_indices":[0],"split_type":[0],"sum_hessian":[3.1308958E1],"tree_param":{"num_deleted":"0","num_feature":"28","num_nodes":"1","size_leaf_vector":"1"}},{"base_weights":[3.7710708E-2],"categories":[],"categories_nodes":[],"categories_segments":[],"categories_sizes":[],"default_left":[0],"id":143,"left_children":[-1],"loss_changes":[0E0],"parents":[2147483647],"right_children":[-1],"split_conditions":[5.4105707E-3],"split_indices":[0],"split_type":[0],"sum_hessian":[2.9270409E1],"tree_param":{"num_deleted":"0","num_feature":"28","num_nodes":"1","size_leaf_vector":"1"}},{"base_weights":[-1.8427157E-1],"categories":[],"categories_nodes":[],"categories_segments":[],"categories_sizes":[],"default_left":[0],"id":144,"left_children":[-1],"loss_changes":[0E0],"parents":[2147483647],"right_children":[-1],"split_conditions":[-2.6438495E-2],"split_indices":[0],"split_type":[0],"sum_hessian":[3.0593878E1],"tree_param":{"num_deleted":"0","num_feature":"28","num_nodes":"1","size_leaf_vector":"1"}},{"base_weights":[2.0429892E-4],"categories":[],"categories_nodes":[],"categories_segments":[],"categories_sizes":[],"default_left":[0],"id":145,"left_children":[-1],"loss_changes":[0E0],"parents":[2147483647],"right_children":[-1],"split_conditions":[2.9311934E-5],"split_indices":[0],"split_type":[0],"sum_hessian":[3.0714102E1],"tree_param":{"num_deleted":"0","num_feature":"28","num_nodes":"1","size_leaf_vector":"1"}},{"base_weights":[1.4480707E-1],"categories":[],"categories_nodes":[],"categories_segments":[],"categories_sizes":[],"default_left":[0],"id":146,"left_children":[-1],"loss_changes":[0E0],"parents":[2147483647],"right_children":[-1],"split_conditions":[2.0776298E-2],"split_indices":[0],"split_type":[0],"sum_hessian":[3.0295832E1],"tree_param":{"num_deleted":"0","num_feature":"28","num_nodes":"1","size_leaf_vector":"1"}},{"base_weights":[-1.2101475E-2],"categories":[],"categories_nodes":[],"categories_segments":[],"categories_sizes":[],"default_left":[0],"id":147,"left_children":[-1],"loss_changes":[0E0],"parents":[2147483647],"right_children":[-1],"split_conditions":[-1.7362677E-3],"split_indices":[0],"split_type":[0],"sum_hessian":[2.9812593E1],"tree_param":{"num_deleted":"0","num_feature":"28","num_nodes":"1","size_leaf_vector":"1"}},{"base_weights":[2.0933544E-2],"categories":[],"categories_nodes":[],"categories_segments":[],"categories_sizes":[],"default_left":[0],"id":148,"left_children":[-1],"loss_changes":[0E0],"parents":[2147483647],"right_children":[-1],"split_conditions":[3.0034552E-3],"split_indices":[0],"split_type":[0],"sum_hessian":[3.0999516E1],"tree_param":{"num_deleted":"0","num_feature":"28","num_nodes":"1","size_leaf_vector":"1"}},{"base_weights":[5.0651237E-2],"categories":[],"categories_nodes":[],"categories_segments":[],"categories_sizes":[],"default_left":[0],"id":149,"left_children":[-1],"loss_changes":[0E0],"parents":[2147483647],"right_children":[-1],"split_conditions":[7.2672223E-3],"split_indices":[0],"split_type":[0],"sum_hessian":[3.1239504E1],"tree_param":{"num_deleted":"0","num_feature":"28","num_nodes":"1","size_leaf_vector":"1"}},{"base_weights":[1.5660299E-2],"categories":[],"categories_nodes":[],"categories_segments":[],"categories_sizes":[],"default_left":[0],"id":150,"left_children":[-1],"loss_changes":[0E0],"parents":[2147483647],"right_children":[-1],"split_conditions":[2.2468725E-3],"split_indices":[0],"split_type":[0],"sum_hessian":[3.0579283E1],"tree_param":{"num_deleted":"0","num_feature":"28","num_nodes":"1","size_leaf_vector":"1"}},{"base_weights":[7.428935E-2],"categories":[],"categories_nodes":[],"categories_segments":[],"categories_sizes":[],"default_left":[0],"id":151,"left_children":[-1],"loss_changes":[0E0],"parents":[2147483647],"right_children":[-1],"split_conditions":[1.0658718E-2],"split_indices":[0],"split_type":[0],"sum_hessian":[3.0177599E1],"tree_param":{"num_deleted":"0","num_feature":"28","num_nodes":"1","size_leaf_vector":"1"}},{"base_weights":[-3.925139E-2],"categories":[],"categories_nodes":[],"categories_segments":[],"categories_sizes":[],"default_left":[0],"id":152,"left_children":[-1],"loss_changes":[0E0],"parents":[2147483647],"right_children":[-1],"split_conditions":[-5.631621E-3],"split_indices":[0],"split_type":[0],"sum_hessian":[2.919354E1],"tree_param":{"num_deleted":"0","num_feature":"28","num_nodes":"1","size_leaf_vector":"1"}},{"base_weights":[1.7505905E-2],"categories":[],"categories_nodes":[],"categories_segments":[],"categories_sizes":[],"default_left":[0],"id":153,"left_children":[-1],"loss_changes":[0E0],"parents":[2147483647],"right_children":[-1],"split_conditions":[2.5116722E-3],"split_indices":[0],"split_type":[0],"sum_hessian":[3.0719978E1],"tree_param":{"num_deleted":"0","num_feature":"28","num_nodes":"1","size_leaf_vector":"1"}},{"base_weights":[-1.1610238E-2],"categories":[],"categories_nodes":[],"categories_segments":[],"categories_sizes":[],"default_left":[0],"id":154,"left_children":[-1],"loss_changes":[0E0],"parents":[2147483647],"right_children":[-1],"split_conditions":[-1.6657872E-3],"split_indices":[0],"split_type":[0],"sum_hessian":[3.0364204E1],"tree_param":{"num_deleted":"0","num_feature":"28","num_nodes":"1","size_leaf_vector":"1"}},{"base_weights":[6.786494E-2],"categories":[],"categories_nodes":[],"categories_segments":[],"categories_sizes":[],"default_left":[0],"id":155,"left_children":[-1],"loss_changes":[0E0],"parents":[2147483647],"right_children":[-1],"split_conditions":[9.73697E-3],"split_indices":[0],"split_type":[0],"sum_hessian":[3.1292421E1],"tree_param":{"num_deleted":"0","num_feature":"28","num_nodes":"1","size_leaf_vector":"1"}},{"base_weights":[-3.302542E-2],"categories":[],"categories_nodes":[],"categories_segments":[],"categories_sizes":[],"default_left":[0],"id":156,"left_children":[-1],"loss_changes":[0E0],"parents":[2147483647],"right_children":[-1],"split_conditions":[-4.7383457E-3],"split_indices":[0],"split_type":[0],"sum_hessian":[2.978053E1],"tree_param":{"num_deleted":"0","num_feature":"28","num_nodes":"1","size_leaf_vector":"1"}},{"base_weights":[-2.6483981E-2],"categories":[],"categories_nodes":[],"categories_segments":[],"categories_sizes":[],"default_left":[0],"id":157,"left_children":[-1],"loss_changes":[0E0],"parents":[2147483647],"right_children":[-1],"split_conditions":[-3.799808E-3],"split_indices":[0],"split_type":[0],"sum_hessian":[2.995541E1],"tree_param":{"num_deleted":"0","num_feature":"28","num_nodes":"1","size_leaf_vector":"1"}},{"base_weights":[5.0370384E-2],"categories":[],"categories_nodes":[],"categories_segments":[],"categories_sizes":[],"default_left":[0],"id":158,"left_children":[-1],"loss_changes":[0E0],"parents":[2147483647],"right_children":[-1],"split_conditions":[7.2269267E-3],"split_indices":[0],"split_type":[0],"sum_hessian":[3.109656E1],"tree_param":{"num_deleted":"0","num_feature":"28","num_nodes":"1","size_leaf_vector":"1"}},{"base_weights":[1.1769012E-2],"categories":[],"categories_nodes":[],"categories_segments":[],"categories_sizes":[],"default_left":[0],"id":159,"left_children":[-1],"loss_changes":[0E0],"parents":[2147483647],"right_children":[-1],"split_conditions":[1.6885673E-3],"split_indices":[0],"split_type":[0],"sum_hessian":[3.0467987E1],"tree_param":{"num_deleted":"0","num_feature":"28","num_nodes":"1","size_leaf_vector":"1"}},{"base_weights":[3.6178336E-2],"categories":[],"categories_nodes":[],"categories_segments":[],"categories_sizes":[],"default_left":[0],"id":160,"left_children":[-1],"loss_changes":[0E0],"parents":[2147483647],"right_children":[-1],"split_conditions":[5.1907124E-3],"split_indices":[0],"split_type":[0],"sum_hessian":[2.9543726E1],"tree_param":{"num_deleted":"0","num_feature":"28","num_nodes":"1","size_leaf_vector":"1"}},{"base_weights":[1.0338138E-2],"categories":[],"categories_nodes":[],"categories_segments":[],"categories_sizes":[],"default_left":[0],"id":161,"left_children":[-1],"loss_changes":[0E0],"parents":[2147483647],"right_children":[-1],"split_conditions":[1.4832717E-3],"split_indices":[0],"split_type":[0],"sum_hessian":[3.1047735E1],"tree_param":{"num_deleted":"0","num_feature":"28","num_nodes":"1","size_leaf_vector":"1"}},{"base_weights":[2.0997662E-2],"categories":[],"categories_nodes":[],"categories_segments":[],"categories_sizes":[],"default_left":[0],"id":162,"left_children":[-1],"loss_changes":[0E0],"parents":[2147483647],"right_children":[-1],"split_conditions":[3.0126546E-3],"split_indices":[0],"split_type":[0],"sum_hessian":[3.0848984E1],"tree_param":{"num_deleted":"0","num_feature":"28","num_nodes":"1","size_leaf_vector":"1"}},{"base_weights":[-9.5204115E-2],"categories":[],"categories_nodes":[],"categories_segments":[],"categories_sizes":[],"default_left":[0],"id":163,"left_children":[-1],"loss_changes":[0E0],"parents":[2147483647],"right_children":[-1],"split_conditions":[-1.3659478E-2],"split_indices":[0],"split_type":[0],"sum_hessian":[2.9732395E1],"tree_param":{"num_deleted":"0","num_feature":"28","num_nodes":"1","size_leaf_vector":"1"}},{"base_weights":[-4.9037524E-3],"categories":[],"categories_nodes":[],"categories_segments":[],"categories_sizes":[],"default_left":[0],"id":164,"left_children":[-1],"loss_changes":[0E0],"parents":[2147483647],"right_children":[-1],"split_conditions":[-7.035694E-4],"split_indices":[0],"split_type":[0],"sum_hessian":[3.0747938E1],"tree_param":{"num_deleted":"0","num_feature":"28","num_nodes":"1","size_leaf_vector":"1"}},{"base_weights":[-1.4767563E-1],"categories":[],"categories_nodes":[],"categories_segments":[],"categories_sizes":[],"default_left":[0],"id":165,"left_children":[-1],"loss_changes":[0E0],"parents":[2147483647],"right_children":[-1],"split_conditions":[-2.1187866E-2],"split_indices":[0],"split_type":[0],"sum_hessian":[3.0717564E1],"tree_param":{"num_deleted":"0","num_feature":"28","num_nodes":"1","size_leaf_vector":"1"}},{"base_weights":[-9.077087E-2],"categories":[],"categories_nodes":[],"categories_segments":[],"categories_sizes":[],"default_left":[0],"id":166,"left_children":[-1],"loss_changes":[0E0],"parents":[2147483647],"right_children":[-1],"split_conditions":[-1.3023416E-2],"split_indices":[0],"split_type":[0],"sum_hessian":[3.0843264E1],"tree_param":{"num_deleted":"0","num_feature":"28","num_nodes":"1","size_leaf_vector":"1"}},{"base_weights":[-1.2790001E-3],"categories":[],"categories_nodes":[],"categories_segments":[],"categories_sizes":[],"default_left":[0],"id":167,"left_children":[-1],"loss_changes":[0E0],"parents":[2147483647],"right_children":[-1],"split_conditions":[-1.8350544E-4],"split_indices":[0],"split_type":[0],"sum_hessian":[3.013741E1],"tree_param":{"num_deleted":"0","num_feature":"28","num_nodes":"1","size_leaf_vector":"1"}},{"base_weights":[-1.2911569E-1],"categories":[],"categories_nodes":[],"categories_segments":[],"categories_sizes":[],"default_left":[0],"id":168,"left_children":[-1],"loss_changes":[0E0],"parents":[2147483647],"right_children":[-1],"split_conditions":[-1.8524965E-2],"split_indices":[0],"split_type":[0],"sum_hessian":[3.0009579E1],"tree_param":{"num_deleted":"0","num_feature":"28","num_nodes":"1","size_leaf_vector":"1"}},{"base_weights":[7.012614E-2],"categories":[],"categories_nodes":[],"categories_segments":[],"categories_sizes":[],"default_left":[0],"id":169,"left_children":[-1],"loss_changes":[0E0],"parents":[2147483647],"right_children":[-1],"split_conditions":[1.0061397E-2],"split_indices":[0],"split_type":[0],"sum_hessian":[3.04457E1],"tree_param":{"num_deleted":"0","num_feature":"28","num_nodes":"1","size_leaf_vector":"1"}},{"base_weights":[1.7895183E-1],"categories":[],"categories_nodes":[],"categories_segments":[],"categories_sizes":[],"default_left":[0],"id":170,"left_children":[-1],"loss_changes":[0E0],"parents":[2147483647],"right_children":[-1],"split_conditions":[2.567524E-2],"split_indices":[0],"split_type":[0],"sum_hessian":[3.1400179E1],"tree_param":{"num_deleted":"0","num_feature":"28","num_nodes":"1","size_leaf_vector":"1"}},{"base_weights":[2.1852538E-2],"categories":[],"categories_nodes":[],"categories_segments":[],"categories_sizes":[],"default_left":[0],"id":171,"left_children":[-1],"loss_changes":[0E0],"parents":[2147483647],"right_children":[-1],"split_conditions":[3.1353084E-3],"split_indices":[0],"split_type":[0],"sum_hessian":[3.1363104E1],"tree_param":{"num_deleted":"0","num_feature":"28","num_nodes":"1","size_leaf_vector":"1"}},{"base_weights":[-3.195189E-2],"categories":[],"categories_nodes":[],"categories_segments":[],"categories_sizes":[],"default_left":[0],"id":172,"left_children":[-1],"loss_changes":[0E0],"parents":[2147483647],"right_children":[-1],"split_conditions":[-4.58432E-3],"split_indices":[0],"split_type":[0],"sum_hessian":[3.0783295E1],"tree_param":{"num_deleted":"0","num_feature":"28","num_nodes":"1","size_leaf_vector":"1"}},{"base_weights":[9.915204E-2],"categories":[],"categories_nodes":[],"categories_segments":[],"categories_sizes":[],"default_left":[0],"id":173,"left_children":[-1],"loss_changes":[0E0],"parents":[2147483647],"right_children":[-1],"split_conditions":[1.422591E-2],"split_indices":[0],"split_type":[0],"sum_hessian":[3.0949747E1],"tree_param":{"num_deleted":"0","num_feature":"28","num_nodes":"1","size_leaf_vector":"1"}},{"base_weights":[-7.894625E-2,1.8915366E-2,-4.1785415E-2],"categories":[],"categories_nodes":[],"categories_segments":[],"categories_sizes":[],"default_left":[0,0,0],"id":174,"left_children":[1,-1,-1],"loss_changes":[1.4533882E0,0E0,0E0],"parents":[2147483647,0,0],"right_children":[2,-1,-1],"split_conditions":[6.489258E-1,1.8915366E-2,-4.1785415E-2],"split_indices":[25,0,0],"split_type":[0,0,0],"sum_hessian":[3.2150436E1,1.6094007E1,1.605643E1],"tree_param":{"num_deleted":"0","num_feature":"28","num_nodes":"3","size_leaf_vector":"1"}},{"base_weights":[-7.732669E-2],"categories":[],"categories_nodes":[],"categories_segments":[],"categories_sizes":[],"default_left":[0],"id":175,"left_children":[-1],"loss_changes":[0E0],"parents":[2147483647],"right_children":[-1],"split_conditions":[-1.1094502E-2],"split_indices":[0],"split_type":[0],"sum_hessian":[3.0107075E1],"tree_param":{"num_deleted":"0","num_feature":"28","num_nodes":"1","size_leaf_vector":"1"}},{"base_weights":[1.26284445E-2],"categories":[],"categories_nodes":[],"categories_segments":[],"categories_sizes":[],"default_left":[0],"id":176,"left_children":[-1],"loss_changes":[0E0],"parents":[2147483647],"right_children":[-1],"split_conditions":[1.811875E-3],"split_indices":[0],"split_type":[0],"sum_hessian":[3.0753313E1],"tree_param":{"num_deleted":"0","num_feature":"28","num_nodes":"1","size_leaf_vector":"1"}},{"base_weights":[2.0321058E-2],"categories":[],"categories_nodes":[],"categories_segments":[],"categories_sizes":[],"default_left":[0],"id":177,"left_children":[-1],"loss_changes":[0E0],"parents":[2147483647],"right_children":[-1],"split_conditions":[2.9155782E-3],"split_indices":[0],"split_type":[0],"sum_hessian":[3.0754698E1],"tree_param":{"num_deleted":"0","num_feature":"28","num_nodes":"1","size_leaf_vector":"1"}},{"base_weights":[-7.8050084E-3],"categories":[],"categories_nodes":[],"categories_segments":[],"categories_sizes":[],"default_left":[0],"id":178,"left_children":[-1],"loss_changes":[0E0],"parents":[2147483647],"right_children":[-1],"split_conditions":[-1.1198291E-3],"split_indices":[0],"split_type":[0],"sum_hessian":[2.9691591E1],"tree_param":{"num_deleted":"0","num_feature":"28","num_nodes":"1","size_leaf_vector":"1"}},{"base_weights":[1.9777048E-2],"categories":[],"categories_nodes":[],"categories_segments":[],"categories_sizes":[],"default_left":[0],"id":179,"left_children":[-1],"loss_changes":[0E0],"parents":[2147483647],"right_children":[-1],"split_conditions":[2.8375261E-3],"split_indices":[0],"split_type":[0],"sum_hessian":[3.1355068E1],"tree_param":{"num_deleted":"0","num_feature":"28","num_nodes":"1","size_leaf_vector":"1"}},{"base_weights":[6.76139E-2],"categories":[],"categories_nodes":[],"categories_segments":[],"categories_sizes":[],"default_left":[0],"id":180,"left_children":[-1],"loss_changes":[0E0],"parents":[2147483647],"right_children":[-1],"split_conditions":[9.700952E-3],"split_indices":[0],"split_type":[0],"sum_hessian":[3.0851513E1],"tree_param":{"num_deleted":"0","num_feature":"28","num_nodes":"1","size_leaf_vector":"1"}},{"base_weights":[-3.31297E-2],"categories":[],"categories_nodes":[],"categories_segments":[],"categories_sizes":[],"default_left":[0],"id":181,"left_children":[-1],"loss_changes":[0E0],"parents":[2147483647],"right_children":[-1],"split_conditions":[-4.753307E-3],"split_indices":[0],"split_type":[0],"sum_hessian":[2.8556198E1],"tree_param":{"num_deleted":"0","num_feature":"28","num_nodes":"1","size_leaf_vector":"1"}},{"base_weights":[6.477644E-2],"categories":[],"categories_nodes":[],"categories_segments":[],"categories_sizes":[],"default_left":[0],"id":182,"left_children":[-1],"loss_changes":[0E0],"parents":[2147483647],"right_children":[-1],"split_conditions":[9.293846E-3],"split_indices":[0],"split_type":[0],"sum_hessian":[3.0773594E1],"tree_param":{"num_deleted":"0","num_feature":"28","num_nodes":"1","size_leaf_vector":"1"}},{"base_weights":[-8.838649E-2],"categories":[],"categories_nodes":[],"categories_segments":[],"categories_sizes":[],"default_left":[0],"id":183,"left_children":[-1],"loss_changes":[0E0],"parents":[2147483647],"right_children":[-1],"split_conditions":[-1.2681315E-2],"split_indices":[0],"split_type":[0],"sum_hessian":[3.0661486E1],"tree_param":{"num_deleted":"0","num_feature":"28","num_nodes":"1","size_leaf_vector":"1"}},{"base_weights":[-1.0472087E-1],"categories":[],"categories_nodes":[],"categories_segments":[],"categories_sizes":[],"default_left":[0],"id":184,"left_children":[-1],"loss_changes":[0E0],"parents":[2147483647],"right_children":[-1],"split_conditions":[-1.5024901E-2],"split_indices":[0],"split_type":[0],"sum_hessian":[2.8937078E1],"tree_param":{"num_deleted":"0","num_feature":"28","num_nodes":"1","size_leaf_vector":"1"}},{"base_weights":[-2.826317E-3],"categories":[],"categories_nodes":[],"categories_segments":[],"categories_sizes":[],"default_left":[0],"id":185,"left_children":[-1],"loss_changes":[0E0],"parents":[2147483647],"right_children":[-1],"split_conditions":[-4.0550783E-4],"split_indices":[0],"split_type":[0],"sum_hessian":[3.0170057E1],"tree_param":{"num_deleted":"0","num_feature":"28","num_nodes":"1","size_leaf_vector":"1"}},{"base_weights":[7.2106207E-4],"categories":[],"categories_nodes":[],"categories_segments":[],"categories_sizes":[],"default_left":[0],"id":186,"left_children":[-1],"loss_changes":[0E0],"parents":[2147483647],"right_children":[-1],